digraph Tree {
node [shape=box, fontname="helvetica"] ;
edge [fontname="helvetica"] ;
0 [label="Perimeter <= 110.6\nsquared_error = 121144.947\nsamples = 455\nvalue = 655.692"] ;
1 [label="Perimeter <= 84.015\nsquared_error = 23018.11\nsamples = 362\nvalue = 506.951"] ;
0 -> 1 [labeldistance=2.5, labelangle=45, headlabel="True"] ;
2 [label="Perimeter <= 70.18\nsquared_error = 7346.374\nsamples = 203\nvalue = 398.633"] ;
1 -> 2 ;
3 [label="Perimeter <= 60.4\nsquared_error = 2682.572\nsamples = 58\nvalue = 285.614"] ;
2 -> 3 ;
4 [label="Perimeter <= 53.68\nsquared_error = 1278.011\nsamples = 20\nvalue = 226.7"] ;
3 -> 4 ;
5 [label="Smoothness <= 0.106\nsquared_error = 412.938\nsamples = 6\nvalue = 179.917"] ;
4 -> 5 ;
6 [label="Texture <= 22.62\nsquared_error = 177.244\nsamples = 5\nvalue = 187.2"] ;
5 -> 6 ;
7 [label="Perimeter <= 52.49\nsquared_error = 1.0\nsamples = 2\nvalue = 202.9"] ;
6 -> 7 ;
8 [label="squared_error = 0.0\nsamples = 1\nvalue = 201.9"] ;
7 -> 8 ;
9 [label="squared_error = 0.0\nsamples = 1\nvalue = 203.9"] ;
7 -> 9 ;
10 [label="Compactness <= 0.084\nsquared_error = 20.862\nsamples = 3\nvalue = 176.733"] ;
6 -> 10 ;
11 [label="Symmetry <= 0.173\nsquared_error = 1.21\nsamples = 2\nvalue = 179.9"] ;
10 -> 11 ;
12 [label="squared_error = 0.0\nsamples = 1\nvalue = 181.0"] ;
11 -> 12 ;
13 [label="squared_error = 0.0\nsamples = 1\nvalue = 178.8"] ;
11 -> 13 ;
14 [label="squared_error = 0.0\nsamples = 1\nvalue = 170.4"] ;
10 -> 14 ;
15 [label="squared_error = -0.0\nsamples = 1\nvalue = 143.5"] ;
5 -> 15 ;
16 [label="Perimeter <= 56.1\nsquared_error = 308.748\nsamples = 14\nvalue = 246.75"] ;
4 -> 16 ;
17 [label="Texture <= 17.72\nsquared_error = 25.838\nsamples = 5\nvalue = 227.08"] ;
16 -> 17 ;
18 [label="Texture <= 15.14\nsquared_error = 8.407\nsamples = 3\nvalue = 230.8"] ;
17 -> 18 ;
19 [label="squared_error = 0.0\nsamples = 1\nvalue = 227.2"] ;
18 -> 19 ;
20 [label="Texture <= 16.335\nsquared_error = 2.89\nsamples = 2\nvalue = 232.6"] ;
18 -> 20 ;
21 [label="squared_error = 0.0\nsamples = 1\nvalue = 230.9"] ;
20 -> 21 ;
22 [label="squared_error = -0.0\nsamples = 1\nvalue = 234.3"] ;
20 -> 22 ;
23 [label="Smoothness <= 0.116\nsquared_error = 0.09\nsamples = 2\nvalue = 221.5"] ;
17 -> 23 ;
24 [label="squared_error = 0.0\nsamples = 1\nvalue = 221.2"] ;
23 -> 24 ;
25 [label="squared_error = -0.0\nsamples = 1\nvalue = 221.8"] ;
23 -> 25 ;
26 [label="Compactness <= 0.123\nsquared_error = 131.555\nsamples = 9\nvalue = 257.678"] ;
16 -> 26 ;
27 [label="Texture <= 16.36\nsquared_error = 103.909\nsamples = 6\nvalue = 263.15"] ;
26 -> 27 ;
28 [label="FractalDimension <= 0.069\nsquared_error = 39.447\nsamples = 3\nvalue = 255.0"] ;
27 -> 28 ;
29 [label="squared_error = 0.0\nsamples = 1\nvalue = 246.3"] ;
28 -> 29 ;
30 [label="FractalDimension <= 0.073\nsquared_error = 2.402\nsamples = 2\nvalue = 259.35"] ;
28 -> 30 ;
31 [label="squared_error = 0.0\nsamples = 1\nvalue = 260.9"] ;
30 -> 31 ;
32 [label="squared_error = -0.0\nsamples = 1\nvalue = 257.8"] ;
30 -> 32 ;
33 [label="Smoothness <= 0.097\nsquared_error = 35.527\nsamples = 3\nvalue = 271.3"] ;
27 -> 33 ;
34 [label="Texture <= 24.91\nsquared_error = 13.322\nsamples = 2\nvalue = 267.65"] ;
33 -> 34 ;
35 [label="squared_error = 0.0\nsamples = 1\nvalue = 264.0"] ;
34 -> 35 ;
36 [label="squared_error = 0.0\nsamples = 1\nvalue = 271.3"] ;
34 -> 36 ;
37 [label="squared_error = 0.0\nsamples = 1\nvalue = 278.6"] ;
33 -> 37 ;
38 [label="Smoothness <= 0.103\nsquared_error = 7.176\nsamples = 3\nvalue = 246.733"] ;
26 -> 38 ;
39 [label="FractalDimension <= 0.08\nsquared_error = 0.122\nsamples = 2\nvalue = 244.85"] ;
38 -> 39 ;
40 [label="squared_error = 0.0\nsamples = 1\nvalue = 245.2"] ;
39 -> 40 ;
41 [label="squared_error = 0.0\nsamples = 1\nvalue = 244.5"] ;
39 -> 41 ;
42 [label="squared_error = -0.0\nsamples = 1\nvalue = 250.5"] ;
38 -> 42 ;
43 [label="Perimeter <= 64.89\nsquared_error = 633.609\nsamples = 38\nvalue = 316.621"] ;
3 -> 43 ;
44 [label="Perimeter <= 64.265\nsquared_error = 109.329\nsamples = 19\nvalue = 294.611"] ;
43 -> 44 ;
45 [label="Perimeter <= 64.035\nsquared_error = 62.431\nsamples = 15\nvalue = 290.72"] ;
44 -> 45 ;
46 [label="Perimeter <= 62.71\nsquared_error = 41.485\nsamples = 14\nvalue = 292.021"] ;
45 -> 46 ;
47 [label="FractalDimension <= 0.071\nsquared_error = 11.997\nsamples = 10\nvalue = 288.71"] ;
46 -> 47 ;
48 [label="Symmetry <= 0.147\nsquared_error = 5.008\nsamples = 9\nvalue = 289.622"] ;
47 -> 48 ;
49 [label="squared_error = 0.0\nsamples = 1\nvalue = 294.5"] ;
48 -> 49 ;
50 [label="Symmetry <= 0.158\nsquared_error = 2.289\nsamples = 8\nvalue = 289.012"] ;
48 -> 50 ;
51 [label="squared_error = 0.0\nsamples = 1\nvalue = 285.7"] ;
50 -> 51 ;
52 [label="Perimeter <= 61.495\nsquared_error = 0.824\nsamples = 7\nvalue = 289.486"] ;
50 -> 52 ;
53 [label="Texture <= 18.355\nsquared_error = 0.169\nsamples = 3\nvalue = 288.567"] ;
52 -> 53 ;
54 [label="Perimeter <= 60.985\nsquared_error = 0.04\nsamples = 2\nvalue = 288.3"] ;
53 -> 54 ;
55 [label="squared_error = 0.0\nsamples = 1\nvalue = 288.1"] ;
54 -> 55 ;
56 [label="squared_error = 0.0\nsamples = 1\nvalue = 288.5"] ;
54 -> 56 ;
57 [label="squared_error = 0.0\nsamples = 1\nvalue = 289.1"] ;
53 -> 57 ;
58 [label="Texture <= 23.66\nsquared_error = 0.207\nsamples = 4\nvalue = 290.175"] ;
52 -> 58 ;
59 [label="FractalDimension <= 0.07\nsquared_error = 0.042\nsamples = 3\nvalue = 289.933"] ;
58 -> 59 ;
60 [label="Perimeter <= 61.715\nsquared_error = 0.01\nsamples = 2\nvalue = 289.8"] ;
59 -> 60 ;
61 [label="squared_error = 0.0\nsamples = 1\nvalue = 289.9"] ;
60 -> 61 ;
62 [label="squared_error = 0.0\nsamples = 1\nvalue = 289.7"] ;
60 -> 62 ;
63 [label="squared_error = -0.0\nsamples = 1\nvalue = 290.2"] ;
59 -> 63 ;
64 [label="squared_error = 0.0\nsamples = 1\nvalue = 290.9"] ;
58 -> 64 ;
65 [label="squared_error = 0.0\nsamples = 1\nvalue = 280.5"] ;
47 -> 65 ;
66 [label="Symmetry <= 0.178\nsquared_error = 19.255\nsamples = 4\nvalue = 300.3"] ;
46 -> 66 ;
67 [label="squared_error = 0.0\nsamples = 1\nvalue = 307.3"] ;
66 -> 67 ;
68 [label="Symmetry <= 0.194\nsquared_error = 3.896\nsamples = 3\nvalue = 297.967"] ;
66 -> 68 ;
69 [label="squared_error = 0.0\nsamples = 1\nvalue = 295.4"] ;
68 -> 69 ;
70 [label="Smoothness <= 0.104\nsquared_error = 0.902\nsamples = 2\nvalue = 299.25"] ;
68 -> 70 ;
71 [label="squared_error = 0.0\nsamples = 1\nvalue = 298.3"] ;
70 -> 71 ;
72 [label="squared_error = -0.0\nsamples = 1\nvalue = 300.2"] ;
70 -> 72 ;
73 [label="squared_error = 0.0\nsamples = 1\nvalue = 272.5"] ;
45 -> 73 ;
74 [label="FractalDimension <= 0.075\nsquared_error = 15.585\nsamples = 4\nvalue = 309.2"] ;
44 -> 74 ;
75 [label="Compactness <= 0.074\nsquared_error = 0.229\nsamples = 3\nvalue = 311.467"] ;
74 -> 75 ;
76 [label="squared_error = 0.0\nsamples = 1\nvalue = 310.8"] ;
75 -> 76 ;
77 [label="FractalDimension <= 0.066\nsquared_error = 0.01\nsamples = 2\nvalue = 311.8"] ;
75 -> 77 ;
78 [label="squared_error = 0.0\nsamples = 1\nvalue = 311.7"] ;
77 -> 78 ;
79 [label="squared_error = 0.0\nsamples = 1\nvalue = 311.9"] ;
77 -> 79 ;
80 [label="squared_error = -0.0\nsamples = 1\nvalue = 302.4"] ;
74 -> 80 ;
81 [label="Perimeter <= 66.62\nsquared_error = 188.962\nsamples = 19\nvalue = 338.632"] ;
43 -> 81 ;
82 [label="Compactness <= 0.055\nsquared_error = 2.195\nsamples = 6\nvalue = 322.483"] ;
81 -> 82 ;
83 [label="squared_error = 0.0\nsamples = 1\nvalue = 324.9"] ;
82 -> 83 ;
84 [label="Smoothness <= 0.103\nsquared_error = 1.232\nsamples = 5\nvalue = 322.0"] ;
82 -> 84 ;
85 [label="Texture <= 16.095\nsquared_error = 0.027\nsamples = 4\nvalue = 321.45"] ;
84 -> 85 ;
86 [label="squared_error = 0.0\nsamples = 2\nvalue = 321.6"] ;
85 -> 86 ;
87 [label="Symmetry <= 0.178\nsquared_error = 0.01\nsamples = 2\nvalue = 321.3"] ;
85 -> 87 ;
88 [label="squared_error = 0.0\nsamples = 1\nvalue = 321.4"] ;
87 -> 88 ;
89 [label="squared_error = 0.0\nsamples = 1\nvalue = 321.2"] ;
87 -> 89 ;
90 [label="squared_error = 0.0\nsamples = 1\nvalue = 324.2"] ;
84 -> 90 ;
91 [label="Texture <= 20.935\nsquared_error = 99.261\nsamples = 13\nvalue = 346.085"] ;
81 -> 91 ;
92 [label="Smoothness <= 0.08\nsquared_error = 45.963\nsamples = 10\nvalue = 341.71"] ;
91 -> 92 ;
93 [label="squared_error = 0.0\nsamples = 1\nvalue = 355.3"] ;
92 -> 93 ;
94 [label="Compactness <= 0.044\nsquared_error = 28.269\nsamples = 9\nvalue = 340.2"] ;
92 -> 94 ;
95 [label="squared_error = 0.0\nsamples = 1\nvalue = 349.6"] ;
94 -> 95 ;
96 [label="Perimeter <= 68.385\nsquared_error = 19.377\nsamples = 8\nvalue = 339.025"] ;
94 -> 96 ;
97 [label="Perimeter <= 66.84\nsquared_error = 6.842\nsamples = 5\nvalue = 336.52"] ;
96 -> 97 ;
98 [label="Smoothness <= 0.094\nsquared_error = 2.56\nsamples = 2\nvalue = 339.3"] ;
97 -> 98 ;
99 [label="squared_error = 0.0\nsamples = 1\nvalue = 340.9"] ;
98 -> 99 ;
100 [label="squared_error = 0.0\nsamples = 1\nvalue = 337.7"] ;
98 -> 100 ;
101 [label="Symmetry <= 0.207\nsquared_error = 1.109\nsamples = 3\nvalue = 334.667"] ;
97 -> 101 ;
102 [label="Perimeter <= 67.175\nsquared_error = 0.122\nsamples = 2\nvalue = 333.95"] ;
101 -> 102 ;
103 [label="squared_error = 0.0\nsamples = 1\nvalue = 334.3"] ;
102 -> 103 ;
104 [label="squared_error = -0.0\nsamples = 1\nvalue = 333.6"] ;
102 -> 104 ;
105 [label="squared_error = 0.0\nsamples = 1\nvalue = 336.1"] ;
101 -> 105 ;
106 [label="Smoothness <= 0.094\nsquared_error = 12.38\nsamples = 3\nvalue = 343.2"] ;
96 -> 106 ;
107 [label="squared_error = 0.0\nsamples = 1\nvalue = 338.3"] ;
106 -> 107 ;
108 [label="FractalDimension <= 0.067\nsquared_error = 0.562\nsamples = 2\nvalue = 345.65"] ;
106 -> 108 ;
109 [label="squared_error = 0.0\nsamples = 1\nvalue = 346.4"] ;
108 -> 109 ;
110 [label="squared_error = 0.0\nsamples = 1\nvalue = 344.9"] ;
108 -> 110 ;
111 [label="FractalDimension <= 0.062\nsquared_error = 0.496\nsamples = 3\nvalue = 360.667"] ;
91 -> 111 ;
112 [label="Perimeter <= 68.65\nsquared_error = 0.09\nsamples = 2\nvalue = 360.2"] ;
111 -> 112 ;
113 [label="squared_error = 0.0\nsamples = 1\nvalue = 360.5"] ;
112 -> 113 ;
114 [label="squared_error = 0.0\nsamples = 1\nvalue = 359.9"] ;
112 -> 114 ;
115 [label="squared_error = 0.0\nsamples = 1\nvalue = 361.6"] ;
111 -> 115 ;
116 [label="Perimeter <= 78.145\nsquared_error = 2058.761\nsamples = 145\nvalue = 443.841"] ;
2 -> 116 ;
117 [label="Perimeter <= 74.215\nsquared_error = 673.274\nsamples = 87\nvalue = 412.603"] ;
116 -> 117 ;
118 [label="Perimeter <= 73.32\nsquared_error = 194.587\nsamples = 41\nvalue = 390.902"] ;
117 -> 118 ;
119 [label="FractalDimension <= 0.065\nsquared_error = 126.866\nsamples = 28\nvalue = 384.5"] ;
118 -> 119 ;
120 [label="Perimeter <= 71.34\nsquared_error = 64.916\nsamples = 19\nvalue = 390.211"] ;
119 -> 120 ;
121 [label="Perimeter <= 70.57\nsquared_error = 10.754\nsamples = 8\nvalue = 383.375"] ;
120 -> 121 ;
122 [label="Texture <= 15.725\nsquared_error = 2.103\nsamples = 2\nvalue = 379.65"] ;
121 -> 122 ;
123 [label="squared_error = 0.0\nsamples = 1\nvalue = 378.2"] ;
122 -> 123 ;
124 [label="squared_error = 0.0\nsamples = 1\nvalue = 381.1"] ;
122 -> 124 ;
125 [label="Smoothness <= 0.091\nsquared_error = 7.471\nsamples = 6\nvalue = 384.617"] ;
121 -> 125 ;
126 [label="Smoothness <= 0.076\nsquared_error = 1.612\nsamples = 4\nvalue = 386.375"] ;
125 -> 126 ;
127 [label="Smoothness <= 0.074\nsquared_error = 0.49\nsamples = 2\nvalue = 385.3"] ;
126 -> 127 ;
128 [label="squared_error = 0.0\nsamples = 1\nvalue = 384.6"] ;
127 -> 128 ;
129 [label="squared_error = 0.0\nsamples = 1\nvalue = 386.0"] ;
127 -> 129 ;
130 [label="Smoothness <= 0.081\nsquared_error = 0.422\nsamples = 2\nvalue = 387.45"] ;
126 -> 130 ;
131 [label="squared_error = 0.0\nsamples = 1\nvalue = 386.8"] ;
130 -> 131 ;
132 [label="squared_error = -0.0\nsamples = 1\nvalue = 388.1"] ;
130 -> 132 ;
133 [label="FractalDimension <= 0.061\nsquared_error = 0.64\nsamples = 2\nvalue = 381.1"] ;
125 -> 133 ;
134 [label="squared_error = 0.0\nsamples = 1\nvalue = 381.9"] ;
133 -> 134 ;
135 [label="squared_error = -0.0\nsamples = 1\nvalue = 380.3"] ;
133 -> 135 ;
136 [label="Smoothness <= 0.097\nsquared_error = 45.611\nsamples = 11\nvalue = 395.182"] ;
120 -> 136 ;
137 [label="Perimeter <= 72.485\nsquared_error = 24.912\nsamples = 8\nvalue = 398.362"] ;
136 -> 137 ;
138 [label="Perimeter <= 71.585\nsquared_error = 7.165\nsamples = 4\nvalue = 394.3"] ;
137 -> 138 ;
139 [label="squared_error = 0.0\nsamples = 1\nvalue = 390.0"] ;
138 -> 139 ;
140 [label="FractalDimension <= 0.057\nsquared_error = 1.336\nsamples = 3\nvalue = 395.733"] ;
138 -> 140 ;
141 [label="squared_error = 0.0\nsamples = 1\nvalue = 394.1"] ;
140 -> 141 ;
142 [label="Symmetry <= 0.172\nsquared_error = 0.003\nsamples = 2\nvalue = 396.55"] ;
140 -> 142 ;
143 [label="squared_error = 0.0\nsamples = 1\nvalue = 396.5"] ;
142 -> 143 ;
144 [label="squared_error = 0.0\nsamples = 1\nvalue = 396.6"] ;
142 -> 144 ;
145 [label="Symmetry <= 0.178\nsquared_error = 9.652\nsamples = 4\nvalue = 402.425"] ;
137 -> 145 ;
146 [label="FractalDimension <= 0.061\nsquared_error = 1.869\nsamples = 3\nvalue = 400.767"] ;
145 -> 146 ;
147 [label="Compactness <= 0.061\nsquared_error = 0.0\nsamples = 2\nvalue = 399.8"] ;
146 -> 147 ;
148 [label="squared_error = 0.0\nsamples = 1\nvalue = 399.8"] ;
147 -> 148 ;
149 [label="squared_error = 0.0\nsamples = 1\nvalue = 399.8"] ;
147 -> 149 ;
150 [label="squared_error = -0.0\nsamples = 1\nvalue = 402.7"] ;
146 -> 150 ;
151 [label="squared_error = -0.0\nsamples = 1\nvalue = 407.4"] ;
145 -> 151 ;
152 [label="Compactness <= 0.095\nsquared_error = 1.887\nsamples = 3\nvalue = 386.7"] ;
136 -> 152 ;
153 [label="Texture <= 16.45\nsquared_error = 0.123\nsamples = 2\nvalue = 387.65"] ;
152 -> 153 ;
154 [label="squared_error = 0.0\nsamples = 1\nvalue = 388.0"] ;
153 -> 154 ;
155 [label="squared_error = 0.0\nsamples = 1\nvalue = 387.3"] ;
153 -> 155 ;
156 [label="squared_error = 0.0\nsamples = 1\nvalue = 384.8"] ;
152 -> 156 ;
157 [label="Smoothness <= 0.123\nsquared_error = 43.471\nsamples = 9\nvalue = 372.444"] ;
119 -> 157 ;
158 [label="FractalDimension <= 0.074\nsquared_error = 21.909\nsamples = 8\nvalue = 370.713"] ;
157 -> 158 ;
159 [label="Texture <= 21.895\nsquared_error = 7.482\nsamples = 6\nvalue = 372.933"] ;
158 -> 159 ;
160 [label="Texture <= 16.08\nsquared_error = 1.806\nsamples = 5\nvalue = 371.84"] ;
159 -> 160 ;
161 [label="FractalDimension <= 0.068\nsquared_error = 0.36\nsamples = 2\nvalue = 373.3"] ;
160 -> 161 ;
162 [label="squared_error = 0.0\nsamples = 1\nvalue = 372.7"] ;
161 -> 162 ;
163 [label="squared_error = 0.0\nsamples = 1\nvalue = 373.9"] ;
161 -> 163 ;
164 [label="Symmetry <= 0.149\nsquared_error = 0.402\nsamples = 3\nvalue = 370.867"] ;
160 -> 164 ;
165 [label="squared_error = 0.0\nsamples = 1\nvalue = 370.0"] ;
164 -> 165 ;
166 [label="Compactness <= 0.117\nsquared_error = 0.04\nsamples = 2\nvalue = 371.3"] ;
164 -> 166 ;
167 [label="squared_error = 0.0\nsamples = 1\nvalue = 371.5"] ;
166 -> 167 ;
168 [label="squared_error = 0.0\nsamples = 1\nvalue = 371.1"] ;
166 -> 168 ;
169 [label="squared_error = -0.0\nsamples = 1\nvalue = 378.4"] ;
159 -> 169 ;
170 [label="Smoothness <= 0.121\nsquared_error = 6.003\nsamples = 2\nvalue = 364.05"] ;
158 -> 170 ;
171 [label="squared_error = 0.0\nsamples = 1\nvalue = 366.5"] ;
170 -> 171 ;
172 [label="squared_error = -0.0\nsamples = 1\nvalue = 361.6"] ;
170 -> 172 ;
173 [label="squared_error = -0.0\nsamples = 1\nvalue = 386.3"] ;
157 -> 173 ;
174 [label="Compactness <= 0.088\nsquared_error = 61.998\nsamples = 13\nvalue = 404.692"] ;
118 -> 174 ;
175 [label="Smoothness <= 0.085\nsquared_error = 29.198\nsamples = 9\nvalue = 408.667"] ;
174 -> 175 ;
176 [label="Perimeter <= 73.79\nsquared_error = 17.222\nsamples = 2\nvalue = 416.85"] ;
175 -> 176 ;
177 [label="squared_error = 0.0\nsamples = 1\nvalue = 421.0"] ;
176 -> 177 ;
178 [label="squared_error = -0.0\nsamples = 1\nvalue = 412.7"] ;
176 -> 178 ;
179 [label="Symmetry <= 0.181\nsquared_error = 8.019\nsamples = 7\nvalue = 406.329"] ;
175 -> 179 ;
180 [label="Perimeter <= 73.76\nsquared_error = 1.407\nsamples = 3\nvalue = 403.4"] ;
179 -> 180 ;
181 [label="Texture <= 12.87\nsquared_error = 0.422\nsamples = 2\nvalue = 402.65"] ;
180 -> 181 ;
182 [label="squared_error = 0.0\nsamples = 1\nvalue = 403.3"] ;
181 -> 182 ;
183 [label="squared_error = 0.0\nsamples = 1\nvalue = 402.0"] ;
181 -> 183 ;
184 [label="squared_error = 0.0\nsamples = 1\nvalue = 404.9"] ;
180 -> 184 ;
185 [label="Compactness <= 0.078\nsquared_error = 1.722\nsamples = 4\nvalue = 408.525"] ;
179 -> 185 ;
186 [label="Smoothness <= 0.086\nsquared_error = 0.096\nsamples = 3\nvalue = 409.267"] ;
185 -> 186 ;
187 [label="squared_error = 0.0\nsamples = 1\nvalue = 409.7"] ;
186 -> 187 ;
188 [label="Symmetry <= 0.188\nsquared_error = 0.003\nsamples = 2\nvalue = 409.05"] ;
186 -> 188 ;
189 [label="squared_error = 0.0\nsamples = 1\nvalue = 409.1"] ;
188 -> 189 ;
190 [label="squared_error = 0.0\nsamples = 1\nvalue = 409.0"] ;
188 -> 190 ;
191 [label="squared_error = 0.0\nsamples = 1\nvalue = 406.3"] ;
185 -> 191 ;
192 [label="Symmetry <= 0.195\nsquared_error = 20.292\nsamples = 4\nvalue = 395.75"] ;
174 -> 192 ;
193 [label="Texture <= 19.14\nsquared_error = 3.062\nsamples = 2\nvalue = 399.75"] ;
192 -> 193 ;
194 [label="squared_error = 0.0\nsamples = 1\nvalue = 398.0"] ;
193 -> 194 ;
195 [label="squared_error = 0.0\nsamples = 1\nvalue = 401.5"] ;
193 -> 195 ;
196 [label="Compactness <= 0.125\nsquared_error = 5.523\nsamples = 2\nvalue = 391.75"] ;
192 -> 196 ;
197 [label="squared_error = 0.0\nsamples = 1\nvalue = 394.1"] ;
196 -> 197 ;
198 [label="squared_error = 0.0\nsamples = 1\nvalue = 389.4"] ;
196 -> 198 ;
199 [label="Perimeter <= 76.385\nsquared_error = 306.064\nsamples = 46\nvalue = 431.946"] ;
117 -> 199 ;
200 [label="FractalDimension <= 0.061\nsquared_error = 116.86\nsamples = 24\nvalue = 421.325"] ;
199 -> 200 ;
201 [label="Perimeter <= 75.525\nsquared_error = 43.815\nsamples = 11\nvalue = 430.309"] ;
200 -> 201 ;
202 [label="Smoothness <= 0.076\nsquared_error = 19.229\nsamples = 7\nvalue = 426.4"] ;
201 -> 202 ;
203 [label="squared_error = 0.0\nsamples = 1\nvalue = 417.2"] ;
202 -> 203 ;
204 [label="Symmetry <= 0.142\nsquared_error = 5.976\nsamples = 6\nvalue = 427.933"] ;
202 -> 204 ;
205 [label="squared_error = 0.0\nsamples = 1\nvalue = 423.6"] ;
204 -> 205 ;
206 [label="Smoothness <= 0.09\nsquared_error = 2.664\nsamples = 5\nvalue = 428.8"] ;
204 -> 206 ;
207 [label="Compactness <= 0.047\nsquared_error = 0.096\nsamples = 3\nvalue = 427.733"] ;
206 -> 207 ;
208 [label="squared_error = 0.0\nsamples = 1\nvalue = 427.3"] ;
207 -> 208 ;
209 [label="Texture <= 20.27\nsquared_error = 0.002\nsamples = 2\nvalue = 427.95"] ;
207 -> 209 ;
210 [label="squared_error = 0.0\nsamples = 1\nvalue = 428.0"] ;
209 -> 210 ;
211 [label="squared_error = 0.0\nsamples = 1\nvalue = 427.9"] ;
209 -> 211 ;
212 [label="Texture <= 17.325\nsquared_error = 2.25\nsamples = 2\nvalue = 430.4"] ;
206 -> 212 ;
213 [label="squared_error = 0.0\nsamples = 1\nvalue = 431.9"] ;
212 -> 213 ;
214 [label="squared_error = -0.0\nsamples = 1\nvalue = 428.9"] ;
212 -> 214 ;
215 [label="FractalDimension <= 0.056\nsquared_error = 13.303\nsamples = 4\nvalue = 437.15"] ;
201 -> 215 ;
216 [label="squared_error = 0.0\nsamples = 1\nvalue = 442.7"] ;
215 -> 216 ;
217 [label="Perimeter <= 75.625\nsquared_error = 4.047\nsamples = 3\nvalue = 435.3"] ;
215 -> 217 ;
218 [label="squared_error = 0.0\nsamples = 1\nvalue = 432.7"] ;
217 -> 218 ;
219 [label="Texture <= 17.8\nsquared_error = 1.0\nsamples = 2\nvalue = 436.6"] ;
217 -> 219 ;
220 [label="squared_error = 0.0\nsamples = 1\nvalue = 435.6"] ;
219 -> 220 ;
221 [label="squared_error = -0.0\nsamples = 1\nvalue = 437.6"] ;
219 -> 221 ;
222 [label="Compactness <= 0.099\nsquared_error = 52.582\nsamples = 13\nvalue = 413.723"] ;
200 -> 222 ;
223 [label="Perimeter <= 74.95\nsquared_error = 17.577\nsamples = 7\nvalue = 419.443"] ;
222 -> 223 ;
224 [label="Symmetry <= 0.187\nsquared_error = 6.269\nsamples = 3\nvalue = 415.467"] ;
223 -> 224 ;
225 [label="Compactness <= 0.08\nsquared_error = 1.562\nsamples = 2\nvalue = 413.85"] ;
224 -> 225 ;
226 [label="squared_error = 0.0\nsamples = 1\nvalue = 412.6"] ;
225 -> 226 ;
227 [label="squared_error = 0.0\nsamples = 1\nvalue = 415.1"] ;
225 -> 227 ;
228 [label="squared_error = -0.0\nsamples = 1\nvalue = 418.7"] ;
224 -> 228 ;
229 [label="Symmetry <= 0.155\nsquared_error = 5.307\nsamples = 4\nvalue = 422.425"] ;
223 -> 229 ;
230 [label="squared_error = 0.0\nsamples = 1\nvalue = 426.0"] ;
229 -> 230 ;
231 [label="FractalDimension <= 0.066\nsquared_error = 1.396\nsamples = 3\nvalue = 421.233"] ;
229 -> 231 ;
232 [label="Texture <= 15.81\nsquared_error = 0.01\nsamples = 2\nvalue = 420.4"] ;
231 -> 232 ;
233 [label="squared_error = 0.0\nsamples = 1\nvalue = 420.3"] ;
232 -> 233 ;
234 [label="squared_error = 0.0\nsamples = 1\nvalue = 420.5"] ;
232 -> 234 ;
235 [label="squared_error = 0.0\nsamples = 1\nvalue = 422.9"] ;
231 -> 235 ;
236 [label="Smoothness <= 0.104\nsquared_error = 10.723\nsamples = 6\nvalue = 407.05"] ;
222 -> 236 ;
237 [label="Compactness <= 0.107\nsquared_error = 0.09\nsamples = 2\nvalue = 403.2"] ;
236 -> 237 ;
238 [label="squared_error = 0.0\nsamples = 1\nvalue = 403.5"] ;
237 -> 238 ;
239 [label="squared_error = 0.0\nsamples = 1\nvalue = 402.9"] ;
237 -> 239 ;
240 [label="Compactness <= 0.109\nsquared_error = 4.922\nsamples = 4\nvalue = 408.975"] ;
236 -> 240 ;
241 [label="squared_error = 0.0\nsamples = 1\nvalue = 412.5"] ;
240 -> 241 ;
242 [label="Symmetry <= 0.204\nsquared_error = 1.04\nsamples = 3\nvalue = 407.8"] ;
240 -> 242 ;
243 [label="Symmetry <= 0.192\nsquared_error = 0.09\nsamples = 2\nvalue = 408.5"] ;
242 -> 243 ;
244 [label="squared_error = 0.0\nsamples = 1\nvalue = 408.2"] ;
243 -> 244 ;
245 [label="squared_error = 0.0\nsamples = 1\nvalue = 408.8"] ;
243 -> 245 ;
246 [label="squared_error = 0.0\nsamples = 1\nvalue = 406.4"] ;
242 -> 246 ;
247 [label="Smoothness <= 0.129\nsquared_error = 255.176\nsamples = 22\nvalue = 443.532"] ;
199 -> 247 ;
248 [label="Compactness <= 0.047\nsquared_error = 102.78\nsamples = 21\nvalue = 446.267"] ;
247 -> 248 ;
249 [label="Perimeter <= 77.335\nsquared_error = 6.917\nsamples = 4\nvalue = 462.475"] ;
248 -> 249 ;
250 [label="Perimeter <= 77.235\nsquared_error = 1.823\nsamples = 2\nvalue = 460.05"] ;
249 -> 250 ;
251 [label="squared_error = 0.0\nsamples = 1\nvalue = 458.7"] ;
250 -> 251 ;
252 [label="squared_error = 0.0\nsamples = 1\nvalue = 461.4"] ;
250 -> 252 ;
253 [label="FractalDimension <= 0.06\nsquared_error = 0.25\nsamples = 2\nvalue = 464.9"] ;
249 -> 253 ;
254 [label="squared_error = 0.0\nsamples = 1\nvalue = 464.4"] ;
253 -> 254 ;
255 [label="squared_error = 0.0\nsamples = 1\nvalue = 465.4"] ;
253 -> 255 ;
256 [label="Compactness <= 0.104\nsquared_error = 48.978\nsamples = 17\nvalue = 442.453"] ;
248 -> 256 ;
257 [label="Texture <= 19.83\nsquared_error = 33.985\nsamples = 13\nvalue = 444.931"] ;
256 -> 257 ;
258 [label="Compactness <= 0.071\nsquared_error = 18.635\nsamples = 8\nvalue = 448.362"] ;
257 -> 258 ;
259 [label="Perimeter <= 77.9\nsquared_error = 21.392\nsamples = 4\nvalue = 450.725"] ;
258 -> 259 ;
260 [label="Smoothness <= 0.088\nsquared_error = 5.642\nsamples = 3\nvalue = 448.333"] ;
259 -> 260 ;
261 [label="squared_error = 0.0\nsamples = 1\nvalue = 445.3"] ;
260 -> 261 ;
262 [label="Smoothness <= 0.099\nsquared_error = 1.562\nsamples = 2\nvalue = 449.85"] ;
260 -> 262 ;
263 [label="squared_error = 0.0\nsamples = 1\nvalue = 448.6"] ;
262 -> 263 ;
264 [label="squared_error = 0.0\nsamples = 1\nvalue = 451.1"] ;
262 -> 264 ;
265 [label="squared_error = 0.0\nsamples = 1\nvalue = 457.9"] ;
259 -> 265 ;
266 [label="Compactness <= 0.091\nsquared_error = 4.715\nsamples = 4\nvalue = 446.0"] ;
258 -> 266 ;
267 [label="Perimeter <= 77.39\nsquared_error = 0.902\nsamples = 2\nvalue = 444.25"] ;
266 -> 267 ;
268 [label="squared_error = 0.0\nsamples = 1\nvalue = 443.3"] ;
267 -> 268 ;
269 [label="squared_error = 0.0\nsamples = 1\nvalue = 445.2"] ;
267 -> 269 ;
270 [label="Symmetry <= 0.181\nsquared_error = 2.402\nsamples = 2\nvalue = 447.75"] ;
266 -> 270 ;
271 [label="squared_error = 0.0\nsamples = 1\nvalue = 449.3"] ;
270 -> 271 ;
272 [label="squared_error = 0.0\nsamples = 1\nvalue = 446.2"] ;
270 -> 272 ;
273 [label="Perimeter <= 76.46\nsquared_error = 9.554\nsamples = 5\nvalue = 439.44"] ;
257 -> 273 ;
274 [label="squared_error = 0.0\nsamples = 1\nvalue = 433.8"] ;
273 -> 274 ;
275 [label="Perimeter <= 76.65\nsquared_error = 2.003\nsamples = 4\nvalue = 440.85"] ;
273 -> 275 ;
276 [label="squared_error = 0.0\nsamples = 1\nvalue = 438.6"] ;
275 -> 276 ;
277 [label="FractalDimension <= 0.064\nsquared_error = 0.42\nsamples = 3\nvalue = 441.6"] ;
275 -> 277 ;
278 [label="squared_error = 0.0\nsamples = 1\nvalue = 442.5"] ;
277 -> 278 ;
279 [label="Texture <= 22.825\nsquared_error = 0.022\nsamples = 2\nvalue = 441.15"] ;
277 -> 279 ;
280 [label="squared_error = 0.0\nsamples = 1\nvalue = 441.0"] ;
279 -> 280 ;
281 [label="squared_error = 0.0\nsamples = 1\nvalue = 441.3"] ;
279 -> 281 ;
282 [label="Compactness <= 0.141\nsquared_error = 12.9\nsamples = 4\nvalue = 434.4"] ;
256 -> 282 ;
283 [label="Texture <= 16.5\nsquared_error = 0.116\nsamples = 3\nvalue = 432.333"] ;
282 -> 283 ;
284 [label="squared_error = 0.0\nsamples = 1\nvalue = 432.8"] ;
283 -> 284 ;
285 [label="FractalDimension <= 0.065\nsquared_error = 0.01\nsamples = 2\nvalue = 432.1"] ;
283 -> 285 ;
286 [label="squared_error = 0.0\nsamples = 1\nvalue = 432.2"] ;
285 -> 286 ;
287 [label="squared_error = -0.0\nsamples = 1\nvalue = 432.0"] ;
285 -> 287 ;
288 [label="squared_error = 0.0\nsamples = 1\nvalue = 440.6"] ;
282 -> 288 ;
289 [label="squared_error = 0.0\nsamples = 1\nvalue = 386.1"] ;
247 -> 289 ;
290 [label="Perimeter <= 81.27\nsquared_error = 477.709\nsamples = 58\nvalue = 490.698"] ;
116 -> 290 ;
291 [label="Perimeter <= 79.805\nsquared_error = 165.529\nsamples = 26\nvalue = 472.438"] ;
290 -> 291 ;
292 [label="Compactness <= 0.071\nsquared_error = 46.881\nsamples = 16\nvalue = 464.794"] ;
291 -> 292 ;
293 [label="Compactness <= 0.043\nsquared_error = 24.706\nsamples = 10\nvalue = 468.6"] ;
292 -> 293 ;
294 [label="Compactness <= 0.037\nsquared_error = 0.16\nsamples = 2\nvalue = 476.9"] ;
293 -> 294 ;
295 [label="squared_error = 0.0\nsamples = 1\nvalue = 476.5"] ;
294 -> 295 ;
296 [label="squared_error = 0.0\nsamples = 1\nvalue = 477.3"] ;
294 -> 296 ;
297 [label="Symmetry <= 0.197\nsquared_error = 9.314\nsamples = 8\nvalue = 466.525"] ;
293 -> 297 ;
298 [label="Symmetry <= 0.184\nsquared_error = 4.318\nsamples = 7\nvalue = 467.414"] ;
297 -> 298 ;
299 [label="Smoothness <= 0.086\nsquared_error = 2.646\nsamples = 5\nvalue = 468.34"] ;
298 -> 299 ;
300 [label="Texture <= 20.49\nsquared_error = 0.01\nsamples = 2\nvalue = 466.6"] ;
299 -> 300 ;
301 [label="squared_error = 0.0\nsamples = 1\nvalue = 466.7"] ;
300 -> 301 ;
302 [label="squared_error = -0.0\nsamples = 1\nvalue = 466.5"] ;
300 -> 302 ;
303 [label="Compactness <= 0.066\nsquared_error = 1.04\nsamples = 3\nvalue = 469.5"] ;
299 -> 303 ;
304 [label="Smoothness <= 0.088\nsquared_error = 0.09\nsamples = 2\nvalue = 468.8"] ;
303 -> 304 ;
305 [label="squared_error = 0.0\nsamples = 1\nvalue = 469.1"] ;
304 -> 305 ;
306 [label="squared_error = 0.0\nsamples = 1\nvalue = 468.5"] ;
304 -> 306 ;
307 [label="squared_error = -0.0\nsamples = 1\nvalue = 470.9"] ;
303 -> 307 ;
308 [label="Symmetry <= 0.196\nsquared_error = 1.0\nsamples = 2\nvalue = 465.1"] ;
298 -> 308 ;
309 [label="squared_error = 0.0\nsamples = 1\nvalue = 464.1"] ;
308 -> 309 ;
310 [label="squared_error = -0.0\nsamples = 1\nvalue = 466.1"] ;
308 -> 310 ;
311 [label="squared_error = -0.0\nsamples = 1\nvalue = 460.3"] ;
297 -> 311 ;
312 [label="Smoothness <= 0.089\nsquared_error = 19.449\nsamples = 6\nvalue = 458.45"] ;
292 -> 312 ;
313 [label="FractalDimension <= 0.063\nsquared_error = 4.203\nsamples = 2\nvalue = 464.05"] ;
312 -> 313 ;
314 [label="squared_error = 0.0\nsamples = 1\nvalue = 462.0"] ;
313 -> 314 ;
315 [label="squared_error = 0.0\nsamples = 1\nvalue = 466.1"] ;
313 -> 315 ;
316 [label="Compactness <= 0.075\nsquared_error = 3.552\nsamples = 4\nvalue = 455.65"] ;
312 -> 316 ;
317 [label="squared_error = 0.0\nsamples = 1\nvalue = 458.4"] ;
316 -> 317 ;
318 [label="Texture <= 19.035\nsquared_error = 1.376\nsamples = 3\nvalue = 454.733"] ;
316 -> 318 ;
319 [label="Smoothness <= 0.099\nsquared_error = 0.062\nsamples = 2\nvalue = 455.55"] ;
318 -> 319 ;
320 [label="squared_error = 0.0\nsamples = 1\nvalue = 455.3"] ;
319 -> 320 ;
321 [label="squared_error = -0.0\nsamples = 1\nvalue = 455.8"] ;
319 -> 321 ;
322 [label="squared_error = -0.0\nsamples = 1\nvalue = 453.1"] ;
318 -> 322 ;
323 [label="FractalDimension <= 0.063\nsquared_error = 112.25\nsamples = 10\nvalue = 484.67"] ;
291 -> 323 ;
324 [label="Perimeter <= 80.535\nsquared_error = 41.486\nsamples = 6\nvalue = 491.367"] ;
323 -> 324 ;
325 [label="Texture <= 17.855\nsquared_error = 19.802\nsamples = 2\nvalue = 484.55"] ;
324 -> 325 ;
326 [label="squared_error = 0.0\nsamples = 1\nvalue = 480.1"] ;
325 -> 326 ;
327 [label="squared_error = 0.0\nsamples = 1\nvalue = 489.0"] ;
325 -> 327 ;
328 [label="Smoothness <= 0.082\nsquared_error = 17.477\nsamples = 4\nvalue = 494.775"] ;
324 -> 328 ;
329 [label="squared_error = 0.0\nsamples = 1\nvalue = 501.3"] ;
328 -> 329 ;
330 [label="Compactness <= 0.067\nsquared_error = 4.38\nsamples = 3\nvalue = 492.6"] ;
328 -> 330 ;
331 [label="Texture <= 14.66\nsquared_error = 1.103\nsamples = 2\nvalue = 493.95"] ;
330 -> 331 ;
332 [label="squared_error = 0.0\nsamples = 1\nvalue = 495.0"] ;
331 -> 332 ;
333 [label="squared_error = 0.0\nsamples = 1\nvalue = 492.9"] ;
331 -> 333 ;
334 [label="squared_error = -0.0\nsamples = 1\nvalue = 489.9"] ;
330 -> 334 ;
335 [label="Perimeter <= 80.865\nsquared_error = 50.227\nsamples = 4\nvalue = 474.625"] ;
323 -> 335 ;
336 [label="squared_error = 0.0\nsamples = 1\nvalue = 462.9"] ;
335 -> 336 ;
337 [label="FractalDimension <= 0.065\nsquared_error = 5.869\nsamples = 3\nvalue = 478.533"] ;
335 -> 337 ;
338 [label="squared_error = 0.0\nsamples = 1\nvalue = 481.9"] ;
337 -> 338 ;
339 [label="Smoothness <= 0.11\nsquared_error = 0.303\nsamples = 2\nvalue = 476.85"] ;
337 -> 339 ;
340 [label="squared_error = 0.0\nsamples = 1\nvalue = 477.4"] ;
339 -> 340 ;
341 [label="squared_error = -0.0\nsamples = 1\nvalue = 476.3"] ;
339 -> 341 ;
342 [label="Compactness <= 0.1\nsquared_error = 240.341\nsamples = 32\nvalue = 505.534"] ;
290 -> 342 ;
343 [label="FractalDimension <= 0.055\nsquared_error = 80.065\nsamples = 25\nvalue = 512.22"] ;
342 -> 343 ;
344 [label="Compactness <= 0.044\nsquared_error = 14.09\nsamples = 4\nvalue = 526.1"] ;
343 -> 344 ;
345 [label="Smoothness <= 0.082\nsquared_error = 3.316\nsamples = 3\nvalue = 528.067"] ;
344 -> 345 ;
346 [label="Smoothness <= 0.072\nsquared_error = 0.16\nsamples = 2\nvalue = 526.8"] ;
345 -> 346 ;
347 [label="squared_error = 0.0\nsamples = 1\nvalue = 526.4"] ;
346 -> 347 ;
348 [label="squared_error = 0.0\nsamples = 1\nvalue = 527.2"] ;
346 -> 348 ;
349 [label="squared_error = -0.0\nsamples = 1\nvalue = 530.6"] ;
345 -> 349 ;
350 [label="squared_error = 0.0\nsamples = 1\nvalue = 520.2"] ;
344 -> 350 ;
351 [label="Perimeter <= 81.88\nsquared_error = 48.946\nsamples = 21\nvalue = 509.576"] ;
343 -> 351 ;
352 [label="Perimeter <= 81.75\nsquared_error = 45.226\nsamples = 5\nvalue = 502.34"] ;
351 -> 352 ;
353 [label="Compactness <= 0.05\nsquared_error = 1.069\nsamples = 3\nvalue = 507.667"] ;
352 -> 353 ;
354 [label="Compactness <= 0.04\nsquared_error = 0.202\nsamples = 2\nvalue = 508.35"] ;
353 -> 354 ;
355 [label="squared_error = 0.0\nsamples = 1\nvalue = 508.8"] ;
354 -> 355 ;
356 [label="squared_error = -0.0\nsamples = 1\nvalue = 507.9"] ;
354 -> 356 ;
357 [label="squared_error = 0.0\nsamples = 1\nvalue = 506.3"] ;
353 -> 357 ;
358 [label="Symmetry <= 0.17\nsquared_error = 5.063\nsamples = 2\nvalue = 494.35"] ;
352 -> 358 ;
359 [label="squared_error = 0.0\nsamples = 1\nvalue = 492.1"] ;
358 -> 359 ;
360 [label="squared_error = 0.0\nsamples = 1\nvalue = 496.6"] ;
358 -> 360 ;
361 [label="Compactness <= 0.077\nsquared_error = 28.631\nsamples = 16\nvalue = 511.838"] ;
351 -> 361 ;
362 [label="Perimeter <= 82.57\nsquared_error = 23.271\nsamples = 7\nvalue = 515.629"] ;
361 -> 362 ;
363 [label="Compactness <= 0.064\nsquared_error = 10.674\nsamples = 5\nvalue = 513.24"] ;
362 -> 363 ;
364 [label="FractalDimension <= 0.057\nsquared_error = 2.685\nsamples = 4\nvalue = 514.7"] ;
363 -> 364 ;
365 [label="Texture <= 14.725\nsquared_error = 0.063\nsamples = 2\nvalue = 516.15"] ;
364 -> 365 ;
366 [label="squared_error = 0.0\nsamples = 1\nvalue = 515.9"] ;
365 -> 366 ;
367 [label="squared_error = 0.0\nsamples = 1\nvalue = 516.4"] ;
365 -> 367 ;
368 [label="Texture <= 22.565\nsquared_error = 1.103\nsamples = 2\nvalue = 513.25"] ;
364 -> 368 ;
369 [label="squared_error = 0.0\nsamples = 1\nvalue = 512.2"] ;
368 -> 369 ;
370 [label="squared_error = 0.0\nsamples = 1\nvalue = 514.3"] ;
368 -> 370 ;
371 [label="squared_error = -0.0\nsamples = 1\nvalue = 507.4"] ;
363 -> 371 ;
372 [label="Smoothness <= 0.102\nsquared_error = 4.84\nsamples = 2\nvalue = 521.6"] ;
362 -> 372 ;
373 [label="squared_error = 0.0\nsamples = 1\nvalue = 523.8"] ;
372 -> 373 ;
374 [label="squared_error = 0.0\nsamples = 1\nvalue = 519.4"] ;
372 -> 374 ;
375 [label="Texture <= 15.825\nsquared_error = 12.928\nsamples = 9\nvalue = 508.889"] ;
361 -> 375 ;
376 [label="Symmetry <= 0.165\nsquared_error = 1.416\nsamples = 3\nvalue = 505.267"] ;
375 -> 376 ;
377 [label="FractalDimension <= 0.063\nsquared_error = 0.122\nsamples = 2\nvalue = 504.45"] ;
376 -> 377 ;
378 [label="squared_error = 0.0\nsamples = 1\nvalue = 504.1"] ;
377 -> 378 ;
379 [label="squared_error = -0.0\nsamples = 1\nvalue = 504.8"] ;
377 -> 379 ;
380 [label="squared_error = 0.0\nsamples = 1\nvalue = 506.9"] ;
376 -> 380 ;
381 [label="FractalDimension <= 0.061\nsquared_error = 8.843\nsamples = 6\nvalue = 510.7"] ;
375 -> 381 ;
382 [label="Compactness <= 0.092\nsquared_error = 1.0\nsamples = 2\nvalue = 507.3"] ;
381 -> 382 ;
383 [label="squared_error = 0.0\nsamples = 1\nvalue = 508.3"] ;
382 -> 383 ;
384 [label="squared_error = 0.0\nsamples = 1\nvalue = 506.3"] ;
382 -> 384 ;
385 [label="Symmetry <= 0.182\nsquared_error = 4.095\nsamples = 4\nvalue = 512.4"] ;
381 -> 385 ;
386 [label="Perimeter <= 83.44\nsquared_error = 0.909\nsamples = 3\nvalue = 513.467"] ;
385 -> 386 ;
387 [label="Compactness <= 0.081\nsquared_error = 0.16\nsamples = 2\nvalue = 514.1"] ;
386 -> 387 ;
388 [label="squared_error = 0.0\nsamples = 1\nvalue = 513.7"] ;
387 -> 388 ;
389 [label="squared_error = 0.0\nsamples = 1\nvalue = 514.5"] ;
387 -> 389 ;
390 [label="squared_error = -0.0\nsamples = 1\nvalue = 512.2"] ;
386 -> 390 ;
391 [label="squared_error = 0.0\nsamples = 1\nvalue = 509.2"] ;
385 -> 391 ;
392 [label="FractalDimension <= 0.07\nsquared_error = 83.0\nsamples = 7\nvalue = 481.657"] ;
342 -> 392 ;
393 [label="Texture <= 21.455\nsquared_error = 39.316\nsamples = 3\nvalue = 490.133"] ;
392 -> 393 ;
394 [label="Texture <= 18.62\nsquared_error = 0.01\nsamples = 2\nvalue = 485.7"] ;
393 -> 394 ;
395 [label="squared_error = 0.0\nsamples = 1\nvalue = 485.6"] ;
394 -> 395 ;
396 [label="squared_error = -0.0\nsamples = 1\nvalue = 485.8"] ;
394 -> 396 ;
397 [label="squared_error = 0.0\nsamples = 1\nvalue = 499.0"] ;
393 -> 397 ;
398 [label="Perimeter <= 81.81\nsquared_error = 21.465\nsamples = 4\nvalue = 475.3"] ;
392 -> 398 ;
399 [label="squared_error = 0.0\nsamples = 1\nvalue = 467.8"] ;
398 -> 399 ;
400 [label="Perimeter <= 82.36\nsquared_error = 3.62\nsamples = 3\nvalue = 477.8"] ;
398 -> 400 ;
401 [label="squared_error = 0.0\nsamples = 1\nvalue = 480.4"] ;
400 -> 401 ;
402 [label="Compactness <= 0.205\nsquared_error = 0.36\nsamples = 2\nvalue = 476.5"] ;
400 -> 402 ;
403 [label="squared_error = 0.0\nsamples = 1\nvalue = 477.1"] ;
402 -> 403 ;
404 [label="squared_error = -0.0\nsamples = 1\nvalue = 475.9"] ;
402 -> 404 ;
405 [label="Perimeter <= 94.53\nsquared_error = 8922.604\nsamples = 159\nvalue = 645.243"] ;
1 -> 405 ;
406 [label="Perimeter <= 88.85\nsquared_error = 1713.159\nsamples = 92\nvalue = 579.064"] ;
405 -> 406 ;
407 [label="Perimeter <= 87.63\nsquared_error = 605.773\nsamples = 55\nvalue = 552.082"] ;
406 -> 407 ;
408 [label="Compactness <= 0.091\nsquared_error = 344.583\nsamples = 36\nvalue = 539.025"] ;
407 -> 408 ;
409 [label="Perimeter <= 85.84\nsquared_error = 143.207\nsamples = 19\nvalue = 550.716"] ;
408 -> 409 ;
410 [label="Perimeter <= 84.415\nsquared_error = 21.502\nsamples = 11\nvalue = 541.527"] ;
409 -> 410 ;
411 [label="Compactness <= 0.049\nsquared_error = 2.574\nsamples = 5\nvalue = 538.56"] ;
410 -> 411 ;
412 [label="squared_error = 0.0\nsamples = 1\nvalue = 541.6"] ;
411 -> 412 ;
413 [label="Perimeter <= 84.065\nsquared_error = 0.33\nsamples = 4\nvalue = 537.8"] ;
411 -> 413 ;
414 [label="squared_error = 0.0\nsamples = 1\nvalue = 538.7"] ;
413 -> 414 ;
415 [label="Compactness <= 0.052\nsquared_error = 0.08\nsamples = 3\nvalue = 537.5"] ;
413 -> 415 ;
416 [label="squared_error = 0.0\nsamples = 1\nvalue = 537.9"] ;
415 -> 416 ;
417 [label="FractalDimension <= 0.057\nsquared_error = 0.0\nsamples = 2\nvalue = 537.3"] ;
415 -> 417 ;
418 [label="squared_error = 0.0\nsamples = 1\nvalue = 537.3"] ;
417 -> 418 ;
419 [label="squared_error = 0.0\nsamples = 1\nvalue = 537.3"] ;
417 -> 419 ;
420 [label="Compactness <= 0.066\nsquared_error = 23.823\nsamples = 6\nvalue = 544.0"] ;
410 -> 420 ;
421 [label="FractalDimension <= 0.057\nsquared_error = 8.42\nsamples = 3\nvalue = 548.3"] ;
420 -> 421 ;
422 [label="Smoothness <= 0.085\nsquared_error = 0.022\nsamples = 2\nvalue = 546.25"] ;
421 -> 422 ;
423 [label="squared_error = 0.0\nsamples = 1\nvalue = 546.4"] ;
422 -> 423 ;
424 [label="squared_error = -0.0\nsamples = 1\nvalue = 546.1"] ;
422 -> 424 ;
425 [label="squared_error = -0.0\nsamples = 1\nvalue = 552.4"] ;
421 -> 425 ;
426 [label="Perimeter <= 85.55\nsquared_error = 2.247\nsamples = 3\nvalue = 539.7"] ;
420 -> 426 ;
427 [label="Smoothness <= 0.09\nsquared_error = 0.063\nsamples = 2\nvalue = 538.65"] ;
426 -> 427 ;
428 [label="squared_error = 0.0\nsamples = 1\nvalue = 538.4"] ;
427 -> 428 ;
429 [label="squared_error = 0.0\nsamples = 1\nvalue = 538.9"] ;
427 -> 429 ;
430 [label="squared_error = 0.0\nsamples = 1\nvalue = 541.8"] ;
426 -> 430 ;
431 [label="Texture <= 18.07\nsquared_error = 34.838\nsamples = 8\nvalue = 563.35"] ;
409 -> 431 ;
432 [label="Symmetry <= 0.173\nsquared_error = 7.389\nsamples = 3\nvalue = 570.133"] ;
431 -> 432 ;
433 [label="Compactness <= 0.051\nsquared_error = 0.062\nsamples = 2\nvalue = 572.05"] ;
432 -> 433 ;
434 [label="squared_error = 0.0\nsamples = 1\nvalue = 572.3"] ;
433 -> 434 ;
435 [label="squared_error = -0.0\nsamples = 1\nvalue = 571.8"] ;
433 -> 435 ;
436 [label="squared_error = 0.0\nsamples = 1\nvalue = 566.3"] ;
432 -> 436 ;
437 [label="Smoothness <= 0.09\nsquared_error = 7.134\nsamples = 5\nvalue = 559.28"] ;
431 -> 437 ;
438 [label="Perimeter <= 86.4\nsquared_error = 0.269\nsamples = 3\nvalue = 561.367"] ;
437 -> 438 ;
439 [label="squared_error = 0.0\nsamples = 1\nvalue = 562.1"] ;
438 -> 439 ;
440 [label="squared_error = 0.0\nsamples = 2\nvalue = 561.0"] ;
438 -> 440 ;
441 [label="FractalDimension <= 0.059\nsquared_error = 1.103\nsamples = 2\nvalue = 556.15"] ;
437 -> 441 ;
442 [label="squared_error = 0.0\nsamples = 1\nvalue = 555.1"] ;
441 -> 442 ;
443 [label="squared_error = -0.0\nsamples = 1\nvalue = 557.2"] ;
441 -> 443 ;
444 [label="Perimeter <= 85.34\nsquared_error = 246.172\nsamples = 17\nvalue = 525.959"] ;
408 -> 444 ;
445 [label="Smoothness <= 0.102\nsquared_error = 67.913\nsamples = 6\nvalue = 508.9"] ;
444 -> 445 ;
446 [label="Compactness <= 0.098\nsquared_error = 2.447\nsamples = 4\nvalue = 514.275"] ;
445 -> 446 ;
447 [label="squared_error = 0.0\nsamples = 1\nvalue = 516.6"] ;
446 -> 447 ;
448 [label="Perimeter <= 84.735\nsquared_error = 0.86\nsamples = 3\nvalue = 513.5"] ;
446 -> 448 ;
449 [label="Symmetry <= 0.171\nsquared_error = 0.023\nsamples = 2\nvalue = 514.15"] ;
448 -> 449 ;
450 [label="squared_error = 0.0\nsamples = 1\nvalue = 514.3"] ;
449 -> 450 ;
451 [label="squared_error = 0.0\nsamples = 1\nvalue = 514.0"] ;
449 -> 451 ;
452 [label="squared_error = 0.0\nsamples = 1\nvalue = 512.2"] ;
448 -> 452 ;
453 [label="Compactness <= 0.173\nsquared_error = 25.503\nsamples = 2\nvalue = 498.15"] ;
445 -> 453 ;
454 [label="squared_error = 0.0\nsamples = 1\nvalue = 493.1"] ;
453 -> 454 ;
455 [label="squared_error = 0.0\nsamples = 1\nvalue = 503.2"] ;
453 -> 455 ;
456 [label="FractalDimension <= 0.068\nsquared_error = 98.095\nsamples = 11\nvalue = 535.264"] ;
444 -> 456 ;
457 [label="Perimeter <= 86.425\nsquared_error = 42.721\nsamples = 7\nvalue = 541.214"] ;
456 -> 457 ;
458 [label="Texture <= 21.275\nsquared_error = 4.896\nsamples = 3\nvalue = 534.333"] ;
457 -> 458 ;
459 [label="Symmetry <= 0.185\nsquared_error = 1.323\nsamples = 2\nvalue = 535.75"] ;
458 -> 459 ;
460 [label="squared_error = 0.0\nsamples = 1\nvalue = 536.9"] ;
459 -> 460 ;
461 [label="squared_error = 0.0\nsamples = 1\nvalue = 534.6"] ;
459 -> 461 ;
462 [label="squared_error = 0.0\nsamples = 1\nvalue = 531.5"] ;
458 -> 462 ;
463 [label="FractalDimension <= 0.064\nsquared_error = 8.947\nsamples = 4\nvalue = 546.375"] ;
457 -> 463 ;
464 [label="squared_error = 0.0\nsamples = 1\nvalue = 551.1"] ;
463 -> 464 ;
465 [label="FractalDimension <= 0.065\nsquared_error = 2.007\nsamples = 3\nvalue = 544.8"] ;
463 -> 465 ;
466 [label="squared_error = 0.0\nsamples = 1\nvalue = 542.9"] ;
465 -> 466 ;
467 [label="Symmetry <= 0.188\nsquared_error = 0.302\nsamples = 2\nvalue = 545.75"] ;
465 -> 467 ;
468 [label="squared_error = 0.0\nsamples = 1\nvalue = 546.3"] ;
467 -> 468 ;
469 [label="squared_error = 0.0\nsamples = 1\nvalue = 545.2"] ;
467 -> 469 ;
470 [label="Symmetry <= 0.193\nsquared_error = 24.588\nsamples = 4\nvalue = 524.85"] ;
456 -> 470 ;
471 [label="Perimeter <= 87.115\nsquared_error = 0.16\nsamples = 2\nvalue = 529.8"] ;
470 -> 471 ;
472 [label="squared_error = 0.0\nsamples = 1\nvalue = 529.4"] ;
471 -> 472 ;
473 [label="squared_error = 0.0\nsamples = 1\nvalue = 530.2"] ;
471 -> 473 ;
474 [label="Symmetry <= 0.215\nsquared_error = 0.01\nsamples = 2\nvalue = 519.9"] ;
470 -> 474 ;
475 [label="squared_error = 0.0\nsamples = 1\nvalue = 520.0"] ;
474 -> 475 ;
476 [label="squared_error = 0.0\nsamples = 1\nvalue = 519.8"] ;
474 -> 476 ;
477 [label="FractalDimension <= 0.06\nsquared_error = 165.613\nsamples = 19\nvalue = 576.821"] ;
407 -> 477 ;
478 [label="Perimeter <= 88.32\nsquared_error = 30.497\nsamples = 10\nvalue = 587.49"] ;
477 -> 478 ;
479 [label="Symmetry <= 0.169\nsquared_error = 4.943\nsamples = 4\nvalue = 581.85"] ;
478 -> 479 ;
480 [label="Texture <= 15.59\nsquared_error = 1.323\nsamples = 2\nvalue = 583.85"] ;
479 -> 480 ;
481 [label="squared_error = 0.0\nsamples = 1\nvalue = 582.7"] ;
480 -> 481 ;
482 [label="squared_error = 0.0\nsamples = 1\nvalue = 585.0"] ;
480 -> 482 ;
483 [label="Perimeter <= 88.055\nsquared_error = 0.563\nsamples = 2\nvalue = 579.85"] ;
479 -> 483 ;
484 [label="squared_error = 0.0\nsamples = 1\nvalue = 579.1"] ;
483 -> 484 ;
485 [label="squared_error = 0.0\nsamples = 1\nvalue = 580.6"] ;
483 -> 485 ;
486 [label="Smoothness <= 0.088\nsquared_error = 12.189\nsamples = 6\nvalue = 591.25"] ;
478 -> 486 ;
487 [label="Perimeter <= 88.445\nsquared_error = 5.602\nsamples = 4\nvalue = 593.225"] ;
486 -> 487 ;
488 [label="squared_error = 0.0\nsamples = 1\nvalue = 596.6"] ;
487 -> 488 ;
489 [label="Compactness <= 0.066\nsquared_error = 2.407\nsamples = 3\nvalue = 592.1"] ;
487 -> 489 ;
490 [label="Symmetry <= 0.149\nsquared_error = 0.303\nsamples = 2\nvalue = 593.15"] ;
489 -> 490 ;
491 [label="squared_error = 0.0\nsamples = 1\nvalue = 593.7"] ;
490 -> 491 ;
492 [label="squared_error = -0.0\nsamples = 1\nvalue = 592.6"] ;
490 -> 492 ;
493 [label="squared_error = 0.0\nsamples = 1\nvalue = 590.0"] ;
489 -> 493 ;
494 [label="FractalDimension <= 0.059\nsquared_error = 1.96\nsamples = 2\nvalue = 587.3"] ;
486 -> 494 ;
495 [label="squared_error = 0.0\nsamples = 1\nvalue = 585.9"] ;
494 -> 495 ;
496 [label="squared_error = 0.0\nsamples = 1\nvalue = 588.7"] ;
494 -> 496 ;
497 [label="Smoothness <= 0.101\nsquared_error = 48.742\nsamples = 9\nvalue = 564.967"] ;
477 -> 497 ;
498 [label="Texture <= 16.985\nsquared_error = 3.303\nsamples = 4\nvalue = 572.55"] ;
497 -> 498 ;
499 [label="squared_error = 0.0\nsamples = 1\nvalue = 575.5"] ;
498 -> 499 ;
500 [label="Compactness <= 0.079\nsquared_error = 0.536\nsamples = 3\nvalue = 571.567"] ;
498 -> 500 ;
501 [label="squared_error = 0.0\nsamples = 1\nvalue = 572.6"] ;
500 -> 501 ;
502 [label="FractalDimension <= 0.065\nsquared_error = 0.003\nsamples = 2\nvalue = 571.05"] ;
500 -> 502 ;
503 [label="squared_error = 0.0\nsamples = 1\nvalue = 571.1"] ;
502 -> 503 ;
504 [label="squared_error = 0.0\nsamples = 1\nvalue = 571.0"] ;
502 -> 504 ;
505 [label="Smoothness <= 0.105\nsquared_error = 2.284\nsamples = 5\nvalue = 558.9"] ;
497 -> 505 ;
506 [label="FractalDimension <= 0.064\nsquared_error = 1.103\nsamples = 2\nvalue = 560.25"] ;
505 -> 506 ;
507 [label="squared_error = 0.0\nsamples = 1\nvalue = 561.3"] ;
506 -> 507 ;
508 [label="squared_error = 0.0\nsamples = 1\nvalue = 559.2"] ;
506 -> 508 ;
509 [label="Perimeter <= 88.37\nsquared_error = 1.047\nsamples = 3\nvalue = 558.0"] ;
505 -> 509 ;
510 [label="Texture <= 14.915\nsquared_error = 0.303\nsamples = 2\nvalue = 558.65"] ;
509 -> 510 ;
511 [label="squared_error = 0.0\nsamples = 1\nvalue = 559.2"] ;
510 -> 511 ;
512 [label="squared_error = -0.0\nsamples = 1\nvalue = 558.1"] ;
510 -> 512 ;
513 [label="squared_error = -0.0\nsamples = 1\nvalue = 556.7"] ;
509 -> 513 ;
514 [label="Perimeter <= 91.905\nsquared_error = 668.326\nsamples = 37\nvalue = 619.173"] ;
406 -> 514 ;
515 [label="Compactness <= 0.053\nsquared_error = 230.684\nsamples = 18\nvalue = 601.333"] ;
514 -> 515 ;
516 [label="Smoothness <= 0.079\nsquared_error = 59.447\nsamples = 3\nvalue = 627.4"] ;
515 -> 516 ;
517 [label="FractalDimension <= 0.055\nsquared_error = 0.063\nsamples = 2\nvalue = 632.85"] ;
516 -> 517 ;
518 [label="squared_error = 0.0\nsamples = 1\nvalue = 632.6"] ;
517 -> 518 ;
519 [label="squared_error = 0.0\nsamples = 1\nvalue = 633.1"] ;
517 -> 519 ;
520 [label="squared_error = 0.0\nsamples = 1\nvalue = 616.5"] ;
516 -> 520 ;
521 [label="FractalDimension <= 0.066\nsquared_error = 101.859\nsamples = 15\nvalue = 596.12"] ;
515 -> 521 ;
522 [label="Texture <= 15.42\nsquared_error = 44.276\nsamples = 10\nvalue = 601.35"] ;
521 -> 522 ;
523 [label="FractalDimension <= 0.062\nsquared_error = 11.56\nsamples = 2\nvalue = 590.8"] ;
522 -> 523 ;
524 [label="squared_error = 0.0\nsamples = 1\nvalue = 587.4"] ;
523 -> 524 ;
525 [label="squared_error = 0.0\nsamples = 1\nvalue = 594.2"] ;
523 -> 525 ;
526 [label="Texture <= 16.3\nsquared_error = 17.674\nsamples = 8\nvalue = 603.988"] ;
522 -> 526 ;
527 [label="Smoothness <= 0.082\nsquared_error = 5.523\nsamples = 2\nvalue = 608.85"] ;
526 -> 527 ;
528 [label="squared_error = 0.0\nsamples = 1\nvalue = 606.5"] ;
527 -> 528 ;
529 [label="squared_error = 0.0\nsamples = 1\nvalue = 611.2"] ;
527 -> 529 ;
530 [label="Symmetry <= 0.166\nsquared_error = 11.216\nsamples = 6\nvalue = 602.367"] ;
526 -> 530 ;
531 [label="Texture <= 19.215\nsquared_error = 13.02\nsamples = 3\nvalue = 604.3"] ;
530 -> 531 ;
532 [label="squared_error = 0.0\nsamples = 1\nvalue = 609.1"] ;
531 -> 532 ;
533 [label="Smoothness <= 0.095\nsquared_error = 2.25\nsamples = 2\nvalue = 601.9"] ;
531 -> 533 ;
534 [label="squared_error = 0.0\nsamples = 1\nvalue = 603.4"] ;
533 -> 534 ;
535 [label="squared_error = 0.0\nsamples = 1\nvalue = 600.4"] ;
533 -> 535 ;
536 [label="Symmetry <= 0.186\nsquared_error = 1.936\nsamples = 3\nvalue = 600.433"] ;
530 -> 536 ;
537 [label="Texture <= 18.12\nsquared_error = 0.002\nsamples = 2\nvalue = 599.45"] ;
536 -> 537 ;
538 [label="squared_error = 0.0\nsamples = 1\nvalue = 599.4"] ;
537 -> 538 ;
539 [label="squared_error = -0.0\nsamples = 1\nvalue = 599.5"] ;
537 -> 539 ;
540 [label="squared_error = 0.0\nsamples = 1\nvalue = 602.4"] ;
536 -> 540 ;
541 [label="Texture <= 21.56\nsquared_error = 52.906\nsamples = 5\nvalue = 585.66"] ;
521 -> 541 ;
542 [label="Symmetry <= 0.186\nsquared_error = 9.269\nsamples = 3\nvalue = 580.533"] ;
541 -> 542 ;
543 [label="squared_error = 0.0\nsamples = 1\nvalue = 584.8"] ;
542 -> 543 ;
544 [label="FractalDimension <= 0.072\nsquared_error = 0.25\nsamples = 2\nvalue = 578.4"] ;
542 -> 544 ;
545 [label="squared_error = 0.0\nsamples = 1\nvalue = 578.9"] ;
544 -> 545 ;
546 [label="squared_error = -0.0\nsamples = 1\nvalue = 577.9"] ;
544 -> 546 ;
547 [label="Texture <= 23.02\nsquared_error = 19.802\nsamples = 2\nvalue = 593.35"] ;
541 -> 547 ;
548 [label="squared_error = 0.0\nsamples = 1\nvalue = 588.9"] ;
547 -> 548 ;
549 [label="squared_error = 0.0\nsamples = 1\nvalue = 597.8"] ;
547 -> 549 ;
550 [label="FractalDimension <= 0.069\nsquared_error = 495.798\nsamples = 19\nvalue = 636.074"] ;
514 -> 550 ;
551 [label="FractalDimension <= 0.059\nsquared_error = 176.281\nsamples = 16\nvalue = 643.831"] ;
550 -> 551 ;
552 [label="Symmetry <= 0.167\nsquared_error = 81.633\nsamples = 7\nvalue = 654.986"] ;
551 -> 552 ;
553 [label="Texture <= 18.095\nsquared_error = 7.549\nsamples = 3\nvalue = 663.533"] ;
552 -> 553 ;
554 [label="Perimeter <= 93.445\nsquared_error = 0.303\nsamples = 2\nvalue = 665.45"] ;
553 -> 554 ;
555 [label="squared_error = 0.0\nsamples = 1\nvalue = 664.9"] ;
554 -> 555 ;
556 [label="squared_error = -0.0\nsamples = 1\nvalue = 666.0"] ;
554 -> 556 ;
557 [label="squared_error = 0.0\nsamples = 1\nvalue = 659.7"] ;
553 -> 557 ;
558 [label="FractalDimension <= 0.056\nsquared_error = 41.302\nsamples = 4\nvalue = 648.575"] ;
552 -> 558 ;
559 [label="Texture <= 17.465\nsquared_error = 8.602\nsamples = 3\nvalue = 645.167"] ;
558 -> 559 ;
560 [label="squared_error = 0.0\nsamples = 1\nvalue = 641.2"] ;
559 -> 560 ;
561 [label="Compactness <= 0.076\nsquared_error = 1.102\nsamples = 2\nvalue = 647.15"] ;
559 -> 561 ;
562 [label="squared_error = 0.0\nsamples = 1\nvalue = 646.1"] ;
561 -> 562 ;
563 [label="squared_error = -0.0\nsamples = 1\nvalue = 648.2"] ;
561 -> 563 ;
564 [label="squared_error = 0.0\nsamples = 1\nvalue = 658.8"] ;
558 -> 564 ;
565 [label="Perimeter <= 93.815\nsquared_error = 77.856\nsamples = 9\nvalue = 635.156"] ;
551 -> 565 ;
566 [label="Smoothness <= 0.094\nsquared_error = 31.327\nsamples = 4\nvalue = 626.275"] ;
565 -> 566 ;
567 [label="Texture <= 24.19\nsquared_error = 7.563\nsamples = 2\nvalue = 621.15"] ;
566 -> 567 ;
568 [label="squared_error = 0.0\nsamples = 1\nvalue = 618.4"] ;
567 -> 568 ;
569 [label="squared_error = 0.0\nsamples = 1\nvalue = 623.9"] ;
567 -> 569 ;
570 [label="Smoothness <= 0.101\nsquared_error = 2.56\nsamples = 2\nvalue = 631.4"] ;
566 -> 570 ;
571 [label="squared_error = 0.0\nsamples = 1\nvalue = 633.0"] ;
570 -> 571 ;
572 [label="squared_error = 0.0\nsamples = 1\nvalue = 629.8"] ;
570 -> 572 ;
573 [label="FractalDimension <= 0.063\nsquared_error = 1.514\nsamples = 5\nvalue = 642.26"] ;
565 -> 573 ;
574 [label="squared_error = 0.0\nsamples = 1\nvalue = 644.2"] ;
573 -> 574 ;
575 [label="Compactness <= 0.114\nsquared_error = 0.717\nsamples = 4\nvalue = 641.775"] ;
573 -> 575 ;
576 [label="Symmetry <= 0.188\nsquared_error = 0.062\nsamples = 2\nvalue = 640.95"] ;
575 -> 576 ;
577 [label="squared_error = 0.0\nsamples = 1\nvalue = 640.7"] ;
576 -> 577 ;
578 [label="squared_error = 0.0\nsamples = 1\nvalue = 641.2"] ;
576 -> 578 ;
579 [label="Texture <= 19.995\nsquared_error = 0.01\nsamples = 2\nvalue = 642.6"] ;
575 -> 579 ;
580 [label="squared_error = 0.0\nsamples = 1\nvalue = 642.5"] ;
579 -> 580 ;
581 [label="squared_error = 0.0\nsamples = 1\nvalue = 642.7"] ;
579 -> 581 ;
582 [label="Symmetry <= 0.217\nsquared_error = 167.147\nsamples = 3\nvalue = 594.7"] ;
550 -> 582 ;
583 [label="squared_error = 0.0\nsamples = 1\nvalue = 578.3"] ;
582 -> 583 ;
584 [label="Texture <= 23.805\nsquared_error = 49.0\nsamples = 2\nvalue = 602.9"] ;
582 -> 584 ;
585 [label="squared_error = 0.0\nsamples = 1\nvalue = 609.9"] ;
584 -> 585 ;
586 [label="squared_error = 0.0\nsamples = 1\nvalue = 595.9"] ;
584 -> 586 ;
587 [label="Perimeter <= 102.6\nsquared_error = 4550.596\nsamples = 67\nvalue = 736.115"] ;
405 -> 587 ;
588 [label="Perimeter <= 97.49\nsquared_error = 730.887\nsamples = 39\nvalue = 687.697"] ;
587 -> 588 ;
589 [label="Compactness <= 0.116\nsquared_error = 341.862\nsamples = 22\nvalue = 673.891"] ;
588 -> 589 ;
590 [label="Perimeter <= 95.195\nsquared_error = 169.924\nsamples = 13\nvalue = 685.654"] ;
589 -> 590 ;
591 [label="Compactness <= 0.072\nsquared_error = 62.414\nsamples = 5\nvalue = 674.04"] ;
590 -> 591 ;
592 [label="Perimeter <= 94.815\nsquared_error = 20.009\nsamples = 3\nvalue = 679.633"] ;
591 -> 592 ;
593 [label="Compactness <= 0.061\nsquared_error = 3.61\nsamples = 2\nvalue = 682.6"] ;
592 -> 593 ;
594 [label="squared_error = 0.0\nsamples = 1\nvalue = 680.7"] ;
593 -> 594 ;
595 [label="squared_error = -0.0\nsamples = 1\nvalue = 684.5"] ;
593 -> 595 ;
596 [label="squared_error = 0.0\nsamples = 1\nvalue = 673.7"] ;
592 -> 596 ;
597 [label="FractalDimension <= 0.058\nsquared_error = 8.703\nsamples = 2\nvalue = 665.65"] ;
591 -> 597 ;
598 [label="squared_error = 0.0\nsamples = 1\nvalue = 668.6"] ;
597 -> 598 ;
599 [label="squared_error = -0.0\nsamples = 1\nvalue = 662.7"] ;
597 -> 599 ;
600 [label="Texture <= 21.115\nsquared_error = 100.129\nsamples = 8\nvalue = 692.912"] ;
590 -> 600 ;
601 [label="FractalDimension <= 0.059\nsquared_error = 43.355\nsamples = 6\nvalue = 688.617"] ;
600 -> 601 ;
602 [label="Symmetry <= 0.15\nsquared_error = 9.678\nsamples = 5\nvalue = 685.96"] ;
601 -> 602 ;
603 [label="squared_error = 0.0\nsamples = 1\nvalue = 680.9"] ;
602 -> 603 ;
604 [label="Perimeter <= 95.975\nsquared_error = 4.097\nsamples = 4\nvalue = 687.225"] ;
602 -> 604 ;
605 [label="squared_error = 0.0\nsamples = 1\nvalue = 690.2"] ;
604 -> 605 ;
606 [label="Perimeter <= 97.24\nsquared_error = 1.529\nsamples = 3\nvalue = 686.233"] ;
604 -> 606 ;
607 [label="Smoothness <= 0.085\nsquared_error = 0.04\nsamples = 2\nvalue = 687.1"] ;
606 -> 607 ;
608 [label="squared_error = 0.0\nsamples = 1\nvalue = 686.9"] ;
607 -> 608 ;
609 [label="squared_error = 0.0\nsamples = 1\nvalue = 687.3"] ;
607 -> 609 ;
610 [label="squared_error = 0.0\nsamples = 1\nvalue = 684.5"] ;
606 -> 610 ;
611 [label="squared_error = -0.0\nsamples = 1\nvalue = 701.9"] ;
601 -> 611 ;
612 [label="Perimeter <= 96.4\nsquared_error = 49.0\nsamples = 2\nvalue = 705.8"] ;
600 -> 612 ;
613 [label="squared_error = 0.0\nsamples = 1\nvalue = 698.8"] ;
612 -> 613 ;
614 [label="squared_error = -0.0\nsamples = 1\nvalue = 712.8"] ;
612 -> 614 ;
615 [label="Smoothness <= 0.115\nsquared_error = 101.662\nsamples = 9\nvalue = 656.9"] ;
589 -> 615 ;
616 [label="Texture <= 22.415\nsquared_error = 26.248\nsamples = 7\nvalue = 652.243"] ;
615 -> 616 ;
617 [label="Texture <= 20.63\nsquared_error = 9.812\nsamples = 4\nvalue = 648.35"] ;
616 -> 617 ;
618 [label="Perimeter <= 95.9\nsquared_error = 0.202\nsamples = 2\nvalue = 651.45"] ;
617 -> 618 ;
619 [label="squared_error = 0.0\nsamples = 1\nvalue = 651.9"] ;
618 -> 619 ;
620 [label="squared_error = -0.0\nsamples = 1\nvalue = 651.0"] ;
618 -> 620 ;
621 [label="FractalDimension <= 0.071\nsquared_error = 0.202\nsamples = 2\nvalue = 645.25"] ;
617 -> 621 ;
622 [label="squared_error = 0.0\nsamples = 1\nvalue = 644.8"] ;
621 -> 622 ;
623 [label="squared_error = 0.0\nsamples = 1\nvalue = 645.7"] ;
621 -> 623 ;
624 [label="FractalDimension <= 0.067\nsquared_error = 1.016\nsamples = 3\nvalue = 657.433"] ;
616 -> 624 ;
625 [label="Perimeter <= 96.1\nsquared_error = 0.123\nsamples = 2\nvalue = 656.75"] ;
624 -> 625 ;
626 [label="squared_error = 0.0\nsamples = 1\nvalue = 656.4"] ;
625 -> 626 ;
627 [label="squared_error = 0.0\nsamples = 1\nvalue = 657.1"] ;
625 -> 627 ;
628 [label="squared_error = 0.0\nsamples = 1\nvalue = 658.8"] ;
624 -> 628 ;
629 [label="Symmetry <= 0.196\nsquared_error = 24.01\nsamples = 2\nvalue = 673.2"] ;
615 -> 629 ;
630 [label="squared_error = 0.0\nsamples = 1\nvalue = 668.3"] ;
629 -> 630 ;
631 [label="squared_error = -0.0\nsamples = 1\nvalue = 678.1"] ;
629 -> 631 ;
632 [label="Compactness <= 0.177\nsquared_error = 668.407\nsamples = 17\nvalue = 705.565"] ;
588 -> 632 ;
633 [label="Perimeter <= 100.75\nsquared_error = 497.753\nsamples = 13\nvalue = 713.669"] ;
632 -> 633 ;
634 [label="FractalDimension <= 0.065\nsquared_error = 187.816\nsamples = 10\nvalue = 704.18"] ;
633 -> 634 ;
635 [label="Symmetry <= 0.179\nsquared_error = 85.796\nsamples = 7\nvalue = 711.486"] ;
634 -> 635 ;
636 [label="Texture <= 13.06\nsquared_error = 27.506\nsamples = 5\nvalue = 716.22"] ;
635 -> 636 ;
637 [label="squared_error = 0.0\nsamples = 1\nvalue = 725.5"] ;
636 -> 637 ;
638 [label="Symmetry <= 0.168\nsquared_error = 7.47\nsamples = 4\nvalue = 713.9"] ;
636 -> 638 ;
639 [label="squared_error = 0.0\nsamples = 2\nvalue = 716.6"] ;
638 -> 639 ;
640 [label="Texture <= 17.81\nsquared_error = 0.36\nsamples = 2\nvalue = 711.2"] ;
638 -> 640 ;
641 [label="squared_error = 0.0\nsamples = 1\nvalue = 711.8"] ;
640 -> 641 ;
642 [label="squared_error = -0.0\nsamples = 1\nvalue = 710.6"] ;
640 -> 642 ;
643 [label="Compactness <= 0.129\nsquared_error = 35.402\nsamples = 2\nvalue = 699.65"] ;
635 -> 643 ;
644 [label="squared_error = 0.0\nsamples = 1\nvalue = 693.7"] ;
643 -> 644 ;
645 [label="squared_error = -0.0\nsamples = 1\nvalue = 705.6"] ;
643 -> 645 ;
646 [label="Texture <= 16.705\nsquared_error = 10.736\nsamples = 3\nvalue = 687.133"] ;
634 -> 646 ;
647 [label="squared_error = 0.0\nsamples = 1\nvalue = 682.5"] ;
646 -> 647 ;
648 [label="Texture <= 17.755\nsquared_error = 0.002\nsamples = 2\nvalue = 689.45"] ;
646 -> 648 ;
649 [label="squared_error = 0.0\nsamples = 1\nvalue = 689.4"] ;
648 -> 649 ;
650 [label="squared_error = -0.0\nsamples = 1\nvalue = 689.5"] ;
648 -> 650 ;
651 [label="Perimeter <= 101.8\nsquared_error = 230.22\nsamples = 3\nvalue = 745.3"] ;
633 -> 651 ;
652 [label="squared_error = 0.0\nsamples = 1\nvalue = 766.6"] ;
651 -> 652 ;
653 [label="FractalDimension <= 0.068\nsquared_error = 5.062\nsamples = 2\nvalue = 734.65"] ;
651 -> 653 ;
654 [label="squared_error = 0.0\nsamples = 1\nvalue = 732.4"] ;
653 -> 654 ;
655 [label="squared_error = 0.0\nsamples = 1\nvalue = 736.9"] ;
653 -> 655 ;
656 [label="Compactness <= 0.206\nsquared_error = 315.782\nsamples = 4\nvalue = 679.225"] ;
632 -> 656 ;
657 [label="FractalDimension <= 0.07\nsquared_error = 58.522\nsamples = 2\nvalue = 663.75"] ;
656 -> 657 ;
658 [label="squared_error = 0.0\nsamples = 1\nvalue = 671.4"] ;
657 -> 658 ;
659 [label="squared_error = -0.0\nsamples = 1\nvalue = 656.1"] ;
657 -> 659 ;
660 [label="Compactness <= 0.218\nsquared_error = 94.09\nsamples = 2\nvalue = 694.7"] ;
656 -> 660 ;
661 [label="squared_error = 0.0\nsamples = 1\nvalue = 704.4"] ;
660 -> 661 ;
662 [label="squared_error = -0.0\nsamples = 1\nvalue = 685.0"] ;
660 -> 662 ;
663 [label="Perimeter <= 103.95\nsquared_error = 2057.725\nsamples = 28\nvalue = 803.554"] ;
587 -> 663 ;
664 [label="Compactness <= 0.161\nsquared_error = 1103.35\nsamples = 8\nvalue = 754.65"] ;
663 -> 664 ;
665 [label="Texture <= 16.18\nsquared_error = 476.105\nsamples = 4\nvalue = 782.7"] ;
664 -> 665 ;
666 [label="squared_error = 0.0\nsamples = 1\nvalue = 747.2"] ;
665 -> 666 ;
667 [label="Perimeter <= 103.3\nsquared_error = 74.696\nsamples = 3\nvalue = 794.533"] ;
665 -> 667 ;
668 [label="FractalDimension <= 0.063\nsquared_error = 7.022\nsamples = 2\nvalue = 800.45"] ;
667 -> 668 ;
669 [label="squared_error = 0.0\nsamples = 1\nvalue = 797.8"] ;
668 -> 669 ;
670 [label="squared_error = -0.0\nsamples = 1\nvalue = 803.1"] ;
668 -> 670 ;
671 [label="squared_error = -0.0\nsamples = 1\nvalue = 782.7"] ;
667 -> 671 ;
672 [label="FractalDimension <= 0.071\nsquared_error = 156.99\nsamples = 4\nvalue = 726.6"] ;
664 -> 672 ;
673 [label="Compactness <= 0.175\nsquared_error = 46.24\nsamples = 2\nvalue = 738.1"] ;
672 -> 673 ;
674 [label="squared_error = 0.0\nsamples = 1\nvalue = 744.9"] ;
673 -> 674 ;
675 [label="squared_error = 0.0\nsamples = 1\nvalue = 731.3"] ;
673 -> 675 ;
676 [label="Smoothness <= 0.119\nsquared_error = 3.24\nsamples = 2\nvalue = 715.1"] ;
672 -> 676 ;
677 [label="squared_error = 0.0\nsamples = 1\nvalue = 716.9"] ;
676 -> 677 ;
678 [label="squared_error = 0.0\nsamples = 1\nvalue = 713.3"] ;
676 -> 678 ;
679 [label="FractalDimension <= 0.066\nsquared_error = 1100.201\nsamples = 20\nvalue = 823.115"] ;
663 -> 679 ;
680 [label="Perimeter <= 107.9\nsquared_error = 968.655\nsamples = 14\nvalue = 835.571"] ;
679 -> 680 ;
681 [label="Texture <= 16.78\nsquared_error = 175.712\nsamples = 8\nvalue = 814.038"] ;
680 -> 681 ;
682 [label="Symmetry <= 0.176\nsquared_error = 11.56\nsamples = 2\nvalue = 796.6"] ;
681 -> 682 ;
683 [label="squared_error = 0.0\nsamples = 1\nvalue = 800.0"] ;
682 -> 683 ;
684 [label="squared_error = 0.0\nsamples = 1\nvalue = 793.2"] ;
682 -> 684 ;
685 [label="Symmetry <= 0.165\nsquared_error = 95.289\nsamples = 6\nvalue = 819.85"] ;
681 -> 685 ;
686 [label="squared_error = 0.0\nsamples = 1\nvalue = 838.1"] ;
685 -> 686 ;
687 [label="FractalDimension <= 0.064\nsquared_error = 34.412\nsamples = 5\nvalue = 816.2"] ;
685 -> 687 ;
688 [label="Symmetry <= 0.183\nsquared_error = 7.903\nsamples = 4\nvalue = 813.55"] ;
687 -> 688 ;
689 [label="squared_error = 0.0\nsamples = 1\nvalue = 817.7"] ;
688 -> 689 ;
690 [label="Symmetry <= 0.205\nsquared_error = 2.882\nsamples = 3\nvalue = 812.167"] ;
688 -> 690 ;
691 [label="Texture <= 19.38\nsquared_error = 0.122\nsamples = 2\nvalue = 813.35"] ;
690 -> 691 ;
692 [label="squared_error = 0.0\nsamples = 1\nvalue = 813.0"] ;
691 -> 692 ;
693 [label="squared_error = -0.0\nsamples = 1\nvalue = 813.7"] ;
691 -> 693 ;
694 [label="squared_error = 0.0\nsamples = 1\nvalue = 809.8"] ;
690 -> 694 ;
695 [label="squared_error = -0.0\nsamples = 1\nvalue = 826.8"] ;
687 -> 695 ;
696 [label="Compactness <= 0.148\nsquared_error = 583.258\nsamples = 6\nvalue = 864.283"] ;
680 -> 696 ;
697 [label="Symmetry <= 0.195\nsquared_error = 295.155\nsamples = 4\nvalue = 878.1"] ;
696 -> 697 ;
698 [label="Texture <= 24.835\nsquared_error = 81.429\nsamples = 3\nvalue = 869.267"] ;
697 -> 698 ;
699 [label="Smoothness <= 0.085\nsquared_error = 28.622\nsamples = 2\nvalue = 874.85"] ;
698 -> 699 ;
700 [label="squared_error = 0.0\nsamples = 1\nvalue = 880.2"] ;
699 -> 700 ;
701 [label="squared_error = 0.0\nsamples = 1\nvalue = 869.5"] ;
699 -> 701 ;
702 [label="squared_error = 0.0\nsamples = 1\nvalue = 858.1"] ;
698 -> 702 ;
703 [label="squared_error = 0.0\nsamples = 1\nvalue = 904.6"] ;
697 -> 703 ;
704 [label="Symmetry <= 0.198\nsquared_error = 14.063\nsamples = 2\nvalue = 836.65"] ;
696 -> 704 ;
705 [label="squared_error = 0.0\nsamples = 1\nvalue = 832.9"] ;
704 -> 705 ;
706 [label="squared_error = 0.0\nsamples = 1\nvalue = 840.4"] ;
704 -> 706 ;
707 [label="Texture <= 21.795\nsquared_error = 200.322\nsamples = 6\nvalue = 794.05"] ;
679 -> 707 ;
708 [label="Perimeter <= 108.45\nsquared_error = 98.132\nsamples = 4\nvalue = 802.05"] ;
707 -> 708 ;
709 [label="Texture <= 18.375\nsquared_error = 26.522\nsamples = 2\nvalue = 793.65"] ;
708 -> 709 ;
710 [label="squared_error = 0.0\nsamples = 1\nvalue = 788.5"] ;
709 -> 710 ;
711 [label="squared_error = 0.0\nsamples = 1\nvalue = 798.8"] ;
709 -> 711 ;
712 [label="FractalDimension <= 0.066\nsquared_error = 28.623\nsamples = 2\nvalue = 810.45"] ;
708 -> 712 ;
713 [label="squared_error = 0.0\nsamples = 1\nvalue = 815.8"] ;
712 -> 713 ;
714 [label="squared_error = -0.0\nsamples = 1\nvalue = 805.1"] ;
712 -> 714 ;
715 [label="FractalDimension <= 0.077\nsquared_error = 20.703\nsamples = 2\nvalue = 778.05"] ;
707 -> 715 ;
716 [label="squared_error = 0.0\nsamples = 1\nvalue = 782.6"] ;
715 -> 716 ;
717 [label="squared_error = 0.0\nsamples = 1\nvalue = 773.5"] ;
715 -> 717 ;
718 [label="Perimeter <= 145.1\nsquared_error = 81778.758\nsamples = 93\nvalue = 1234.661"] ;
0 -> 718 [labeldistance=2.5, labelangle=-45, headlabel="False"] ;
719 [label="Perimeter <= 125.15\nsquared_error = 21963.676\nsamples = 80\nvalue = 1143.419"] ;
718 -> 719 ;
720 [label="Perimeter <= 118.5\nsquared_error = 3918.577\nsamples = 36\nvalue = 1008.903"] ;
719 -> 720 ;
721 [label="Perimeter <= 116.65\nsquared_error = 1289.194\nsamples = 18\nvalue = 959.278"] ;
720 -> 721 ;
722 [label="Smoothness <= 0.094\nsquared_error = 864.061\nsamples = 13\nvalue = 944.054"] ;
721 -> 722 ;
723 [label="Perimeter <= 112.6\nsquared_error = 604.265\nsamples = 6\nvalue = 967.583"] ;
722 -> 723 ;
724 [label="squared_error = 0.0\nsamples = 1\nvalue = 933.1"] ;
723 -> 724 ;
725 [label="Smoothness <= 0.089\nsquared_error = 439.734\nsamples = 5\nvalue = 974.48"] ;
723 -> 725 ;
726 [label="FractalDimension <= 0.051\nsquared_error = 48.207\nsamples = 3\nvalue = 991.0"] ;
725 -> 726 ;
727 [label="squared_error = 0.0\nsamples = 1\nvalue = 982.0"] ;
726 -> 727 ;
728 [label="Smoothness <= 0.083\nsquared_error = 11.56\nsamples = 2\nvalue = 995.5"] ;
726 -> 728 ;
729 [label="squared_error = 0.0\nsamples = 1\nvalue = 992.1"] ;
728 -> 729 ;
730 [label="squared_error = 0.0\nsamples = 1\nvalue = 998.9"] ;
728 -> 730 ;
731 [label="FractalDimension <= 0.055\nsquared_error = 3.61\nsamples = 2\nvalue = 949.7"] ;
725 -> 731 ;
732 [label="squared_error = 0.0\nsamples = 1\nvalue = 947.8"] ;
731 -> 732 ;
733 [label="squared_error = -0.0\nsamples = 1\nvalue = 951.6"] ;
731 -> 733 ;
734 [label="Smoothness <= 0.11\nsquared_error = 205.444\nsamples = 7\nvalue = 923.886"] ;
722 -> 734 ;
735 [label="Perimeter <= 114.35\nsquared_error = 64.793\nsamples = 4\nvalue = 934.15"] ;
734 -> 735 ;
736 [label="Perimeter <= 111.4\nsquared_error = 1.136\nsamples = 3\nvalue = 929.533"] ;
735 -> 736 ;
737 [label="squared_error = 0.0\nsamples = 1\nvalue = 930.9"] ;
736 -> 737 ;
738 [label="Smoothness <= 0.102\nsquared_error = 0.303\nsamples = 2\nvalue = 928.85"] ;
736 -> 738 ;
739 [label="squared_error = 0.0\nsamples = 1\nvalue = 928.3"] ;
738 -> 739 ;
740 [label="squared_error = 0.0\nsamples = 1\nvalue = 929.4"] ;
738 -> 740 ;
741 [label="squared_error = -0.0\nsamples = 1\nvalue = 948.0"] ;
735 -> 741 ;
742 [label="Texture <= 22.49\nsquared_error = 65.207\nsamples = 3\nvalue = 910.2"] ;
734 -> 742 ;
743 [label="FractalDimension <= 0.067\nsquared_error = 8.703\nsamples = 2\nvalue = 915.65"] ;
742 -> 743 ;
744 [label="squared_error = 0.0\nsamples = 1\nvalue = 918.6"] ;
743 -> 744 ;
745 [label="squared_error = -0.0\nsamples = 1\nvalue = 912.7"] ;
743 -> 745 ;
746 [label="squared_error = -0.0\nsamples = 1\nvalue = 899.3"] ;
742 -> 746 ;
747 [label="FractalDimension <= 0.056\nsquared_error = 225.19\nsamples = 5\nvalue = 998.86"] ;
721 -> 747 ;
748 [label="squared_error = 0.0\nsamples = 1\nvalue = 1024.0"] ;
747 -> 748 ;
749 [label="FractalDimension <= 0.061\nsquared_error = 83.982\nsamples = 4\nvalue = 992.575"] ;
747 -> 749 ;
750 [label="Perimeter <= 117.4\nsquared_error = 19.496\nsamples = 3\nvalue = 987.767"] ;
749 -> 750 ;
751 [label="squared_error = 0.0\nsamples = 1\nvalue = 981.6"] ;
750 -> 751 ;
752 [label="Compactness <= 0.127\nsquared_error = 0.722\nsamples = 2\nvalue = 990.85"] ;
750 -> 752 ;
753 [label="squared_error = 0.0\nsamples = 1\nvalue = 990.0"] ;
752 -> 753 ;
754 [label="squared_error = 0.0\nsamples = 1\nvalue = 991.7"] ;
752 -> 754 ;
755 [label="squared_error = 0.0\nsamples = 1\nvalue = 1007.0"] ;
749 -> 755 ;
756 [label="FractalDimension <= 0.069\nsquared_error = 1622.68\nsamples = 18\nvalue = 1058.528"] ;
720 -> 756 ;
757 [label="Perimeter <= 120.85\nsquared_error = 865.182\nsamples = 15\nvalue = 1071.867"] ;
756 -> 757 ;
758 [label="Texture <= 21.245\nsquared_error = 242.889\nsamples = 6\nvalue = 1044.667"] ;
757 -> 758 ;
759 [label="Texture <= 20.28\nsquared_error = 70.64\nsamples = 5\nvalue = 1038.6"] ;
758 -> 759 ;
760 [label="Smoothness <= 0.096\nsquared_error = 32.188\nsamples = 4\nvalue = 1035.25"] ;
759 -> 760 ;
761 [label="Symmetry <= 0.171\nsquared_error = 0.25\nsamples = 2\nvalue = 1040.5"] ;
760 -> 761 ;
762 [label="squared_error = 0.0\nsamples = 1\nvalue = 1041.0"] ;
761 -> 762 ;
763 [label="squared_error = 0.0\nsamples = 1\nvalue = 1040.0"] ;
761 -> 763 ;
764 [label="Smoothness <= 0.106\nsquared_error = 9.0\nsamples = 2\nvalue = 1030.0"] ;
760 -> 764 ;
765 [label="squared_error = 0.0\nsamples = 1\nvalue = 1027.0"] ;
764 -> 765 ;
766 [label="squared_error = 0.0\nsamples = 1\nvalue = 1033.0"] ;
764 -> 766 ;
767 [label="squared_error = 0.0\nsamples = 1\nvalue = 1052.0"] ;
759 -> 767 ;
768 [label="squared_error = 0.0\nsamples = 1\nvalue = 1075.0"] ;
758 -> 768 ;
769 [label="Smoothness <= 0.086\nsquared_error = 458.0\nsamples = 9\nvalue = 1090.0"] ;
757 -> 769 ;
770 [label="squared_error = 0.0\nsamples = 1\nvalue = 1138.0"] ;
769 -> 770 ;
771 [label="Texture <= 19.25\nsquared_error = 191.25\nsamples = 8\nvalue = 1084.0"] ;
769 -> 771 ;
772 [label="Symmetry <= 0.187\nsquared_error = 12.5\nsamples = 4\nvalue = 1074.0"] ;
771 -> 772 ;
773 [label="squared_error = 0.0\nsamples = 1\nvalue = 1068.0"] ;
772 -> 773 ;
774 [label="Compactness <= 0.108\nsquared_error = 0.667\nsamples = 3\nvalue = 1076.0"] ;
772 -> 774 ;
775 [label="squared_error = 0.0\nsamples = 1\nvalue = 1075.0"] ;
774 -> 775 ;
776 [label="Texture <= 17.36\nsquared_error = 0.25\nsamples = 2\nvalue = 1076.5"] ;
774 -> 776 ;
777 [label="squared_error = 0.0\nsamples = 1\nvalue = 1077.0"] ;
776 -> 777 ;
778 [label="squared_error = 0.0\nsamples = 1\nvalue = 1076.0"] ;
776 -> 778 ;
779 [label="Symmetry <= 0.195\nsquared_error = 170.0\nsamples = 4\nvalue = 1094.0"] ;
771 -> 779 ;
780 [label="Symmetry <= 0.175\nsquared_error = 16.0\nsamples = 2\nvalue = 1106.0"] ;
779 -> 780 ;
781 [label="squared_error = 0.0\nsamples = 1\nvalue = 1102.0"] ;
780 -> 781 ;
782 [label="squared_error = 0.0\nsamples = 1\nvalue = 1110.0"] ;
780 -> 782 ;
783 [label="FractalDimension <= 0.059\nsquared_error = 36.0\nsamples = 2\nvalue = 1082.0"] ;
779 -> 783 ;
784 [label="squared_error = 0.0\nsamples = 1\nvalue = 1076.0"] ;
783 -> 784 ;
785 [label="squared_error = 0.0\nsamples = 1\nvalue = 1088.0"] ;
783 -> 785 ;
786 [label="Compactness <= 0.229\nsquared_error = 72.389\nsamples = 3\nvalue = 991.833"] ;
756 -> 786 ;
787 [label="squared_error = 0.0\nsamples = 1\nvalue = 980.5"] ;
786 -> 787 ;
788 [label="Perimeter <= 123.6\nsquared_error = 12.25\nsamples = 2\nvalue = 997.5"] ;
786 -> 788 ;
789 [label="squared_error = 0.0\nsamples = 1\nvalue = 1001.0"] ;
788 -> 789 ;
790 [label="squared_error = 0.0\nsamples = 1\nvalue = 994.0"] ;
788 -> 790 ;
791 [label="Perimeter <= 132.45\nsquared_error = 9810.34\nsamples = 44\nvalue = 1253.477"] ;
719 -> 791 ;
792 [label="Perimeter <= 129.3\nsquared_error = 1683.021\nsamples = 24\nvalue = 1181.75"] ;
791 -> 792 ;
793 [label="Compactness <= 0.116\nsquared_error = 767.018\nsamples = 13\nvalue = 1157.538"] ;
792 -> 793 ;
794 [label="Perimeter <= 127.85\nsquared_error = 256.0\nsamples = 2\nvalue = 1207.0"] ;
793 -> 794 ;
795 [label="squared_error = 0.0\nsamples = 1\nvalue = 1191.0"] ;
794 -> 795 ;
796 [label="squared_error = 0.0\nsamples = 1\nvalue = 1223.0"] ;
794 -> 796 ;
797 [label="FractalDimension <= 0.063\nsquared_error = 334.248\nsamples = 11\nvalue = 1148.545"] ;
793 -> 797 ;
798 [label="Perimeter <= 127.7\nsquared_error = 111.556\nsamples = 9\nvalue = 1155.333"] ;
797 -> 798 ;
799 [label="Compactness <= 0.135\nsquared_error = 41.2\nsamples = 5\nvalue = 1148.0"] ;
798 -> 799 ;
800 [label="Compactness <= 0.123\nsquared_error = 6.25\nsamples = 2\nvalue = 1154.5"] ;
799 -> 800 ;
801 [label="squared_error = 0.0\nsamples = 1\nvalue = 1157.0"] ;
800 -> 801 ;
802 [label="squared_error = 0.0\nsamples = 1\nvalue = 1152.0"] ;
800 -> 802 ;
803 [label="Perimeter <= 126.7\nsquared_error = 17.556\nsamples = 3\nvalue = 1143.667"] ;
799 -> 803 ;
804 [label="squared_error = 0.0\nsamples = 1\nvalue = 1138.0"] ;
803 -> 804 ;
805 [label="Texture <= 20.335\nsquared_error = 2.25\nsamples = 2\nvalue = 1146.5"] ;
803 -> 805 ;
806 [label="squared_error = 0.0\nsamples = 1\nvalue = 1145.0"] ;
805 -> 806 ;
807 [label="squared_error = 0.0\nsamples = 1\nvalue = 1148.0"] ;
805 -> 807 ;
808 [label="Texture <= 23.355\nsquared_error = 48.25\nsamples = 4\nvalue = 1164.5"] ;
798 -> 808 ;
809 [label="FractalDimension <= 0.06\nsquared_error = 12.25\nsamples = 2\nvalue = 1170.5"] ;
808 -> 809 ;
810 [label="squared_error = 0.0\nsamples = 1\nvalue = 1174.0"] ;
809 -> 810 ;
811 [label="squared_error = 0.0\nsamples = 1\nvalue = 1167.0"] ;
809 -> 811 ;
812 [label="Perimeter <= 128.5\nsquared_error = 12.25\nsamples = 2\nvalue = 1158.5"] ;
808 -> 812 ;
813 [label="squared_error = 0.0\nsamples = 1\nvalue = 1162.0"] ;
812 -> 813 ;
814 [label="squared_error = 0.0\nsamples = 1\nvalue = 1155.0"] ;
812 -> 814 ;
815 [label="Smoothness <= 0.106\nsquared_error = 196.0\nsamples = 2\nvalue = 1118.0"] ;
797 -> 815 ;
816 [label="squared_error = 0.0\nsamples = 1\nvalue = 1104.0"] ;
815 -> 816 ;
817 [label="squared_error = 0.0\nsamples = 1\nvalue = 1132.0"] ;
815 -> 817 ;
818 [label="Symmetry <= 0.23\nsquared_error = 1254.05\nsamples = 11\nvalue = 1210.364"] ;
792 -> 818 ;
819 [label="FractalDimension <= 0.056\nsquared_error = 539.89\nsamples = 10\nvalue = 1219.1"] ;
818 -> 819 ;
820 [label="Compactness <= 0.103\nsquared_error = 0.25\nsamples = 2\nvalue = 1260.5"] ;
819 -> 820 ;
821 [label="squared_error = 0.0\nsamples = 1\nvalue = 1260.0"] ;
820 -> 821 ;
822 [label="squared_error = 0.0\nsamples = 1\nvalue = 1261.0"] ;
820 -> 822 ;
823 [label="Texture <= 21.62\nsquared_error = 139.188\nsamples = 8\nvalue = 1208.75"] ;
819 -> 823 ;
824 [label="Texture <= 21.405\nsquared_error = 75.0\nsamples = 6\nvalue = 1214.0"] ;
823 -> 824 ;
825 [label="Texture <= 20.755\nsquared_error = 28.56\nsamples = 5\nvalue = 1210.8"] ;
824 -> 825 ;
826 [label="Symmetry <= 0.176\nsquared_error = 16.688\nsamples = 4\nvalue = 1212.75"] ;
825 -> 826 ;
827 [label="squared_error = 0.0\nsamples = 1\nvalue = 1206.0"] ;
826 -> 827 ;
828 [label="Smoothness <= 0.114\nsquared_error = 2.0\nsamples = 3\nvalue = 1215.0"] ;
826 -> 828 ;
829 [label="squared_error = 0.0\nsamples = 2\nvalue = 1214.0"] ;
828 -> 829 ;
830 [label="squared_error = 0.0\nsamples = 1\nvalue = 1217.0"] ;
828 -> 830 ;
831 [label="squared_error = 0.0\nsamples = 1\nvalue = 1203.0"] ;
825 -> 831 ;
832 [label="squared_error = 0.0\nsamples = 1\nvalue = 1230.0"] ;
824 -> 832 ;
833 [label="Compactness <= 0.146\nsquared_error = 1.0\nsamples = 2\nvalue = 1193.0"] ;
823 -> 833 ;
834 [label="squared_error = 0.0\nsamples = 1\nvalue = 1194.0"] ;
833 -> 834 ;
835 [label="squared_error = 0.0\nsamples = 1\nvalue = 1192.0"] ;
833 -> 835 ;
836 [label="squared_error = 0.0\nsamples = 1\nvalue = 1123.0"] ;
818 -> 836 ;
837 [label="Perimeter <= 140.5\nsquared_error = 5980.848\nsamples = 20\nvalue = 1339.55"] ;
791 -> 837 ;
838 [label="Compactness <= 0.181\nsquared_error = 2834.121\nsamples = 16\nvalue = 1314.562"] ;
837 -> 838 ;
839 [label="Perimeter <= 135.4\nsquared_error = 1957.325\nsamples = 13\nvalue = 1330.538"] ;
838 -> 839 ;
840 [label="Compactness <= 0.108\nsquared_error = 166.938\nsamples = 8\nvalue = 1302.25"] ;
839 -> 840 ;
841 [label="Perimeter <= 132.7\nsquared_error = 68.667\nsamples = 3\nvalue = 1317.0"] ;
840 -> 841 ;
842 [label="squared_error = 0.0\nsamples = 1\nvalue = 1306.0"] ;
841 -> 842 ;
843 [label="Perimeter <= 133.65\nsquared_error = 12.25\nsamples = 2\nvalue = 1322.5"] ;
841 -> 843 ;
844 [label="squared_error = 0.0\nsamples = 1\nvalue = 1326.0"] ;
843 -> 844 ;
845 [label="squared_error = 0.0\nsamples = 1\nvalue = 1319.0"] ;
843 -> 845 ;
846 [label="Texture <= 21.225\nsquared_error = 17.04\nsamples = 5\nvalue = 1293.4"] ;
840 -> 846 ;
847 [label="Perimeter <= 134.9\nsquared_error = 1.0\nsamples = 2\nvalue = 1298.0"] ;
846 -> 847 ;
848 [label="squared_error = 0.0\nsamples = 1\nvalue = 1299.0"] ;
847 -> 848 ;
849 [label="squared_error = 0.0\nsamples = 1\nvalue = 1297.0"] ;
847 -> 849 ;
850 [label="Symmetry <= 0.169\nsquared_error = 4.222\nsamples = 3\nvalue = 1290.333"] ;
846 -> 850 ;
851 [label="squared_error = 0.0\nsamples = 1\nvalue = 1293.0"] ;
850 -> 851 ;
852 [label="Smoothness <= 0.095\nsquared_error = 1.0\nsamples = 2\nvalue = 1289.0"] ;
850 -> 852 ;
853 [label="squared_error = 0.0\nsamples = 1\nvalue = 1290.0"] ;
852 -> 853 ;
854 [label="squared_error = 0.0\nsamples = 1\nvalue = 1288.0"] ;
852 -> 854 ;
855 [label="Compactness <= 0.167\nsquared_error = 1492.96\nsamples = 5\nvalue = 1375.8"] ;
839 -> 855 ;
856 [label="Compactness <= 0.116\nsquared_error = 429.688\nsamples = 4\nvalue = 1392.75"] ;
855 -> 856 ;
857 [label="Texture <= 27.08\nsquared_error = 56.25\nsamples = 2\nvalue = 1411.5"] ;
856 -> 857 ;
858 [label="squared_error = 0.0\nsamples = 1\nvalue = 1404.0"] ;
857 -> 858 ;
859 [label="squared_error = 0.0\nsamples = 1\nvalue = 1419.0"] ;
857 -> 859 ;
860 [label="Compactness <= 0.139\nsquared_error = 100.0\nsamples = 2\nvalue = 1374.0"] ;
856 -> 860 ;
861 [label="squared_error = 0.0\nsamples = 1\nvalue = 1384.0"] ;
860 -> 861 ;
862 [label="squared_error = 0.0\nsamples = 1\nvalue = 1364.0"] ;
860 -> 862 ;
863 [label="squared_error = 0.0\nsamples = 1\nvalue = 1308.0"] ;
855 -> 863 ;
864 [label="FractalDimension <= 0.065\nsquared_error = 734.889\nsamples = 3\nvalue = 1245.333"] ;
838 -> 864 ;
865 [label="squared_error = 0.0\nsamples = 1\nvalue = 1207.0"] ;
864 -> 865 ;
866 [label="Compactness <= 0.232\nsquared_error = 0.25\nsamples = 2\nvalue = 1264.5"] ;
864 -> 866 ;
867 [label="squared_error = 0.0\nsamples = 1\nvalue = 1264.0"] ;
866 -> 867 ;
868 [label="squared_error = 0.0\nsamples = 1\nvalue = 1265.0"] ;
866 -> 868 ;
869 [label="Symmetry <= 0.185\nsquared_error = 6080.25\nsamples = 4\nvalue = 1439.5"] ;
837 -> 869 ;
870 [label="Smoothness <= 0.102\nsquared_error = 1122.25\nsamples = 2\nvalue = 1512.5"] ;
869 -> 870 ;
871 [label="squared_error = 0.0\nsamples = 1\nvalue = 1546.0"] ;
870 -> 871 ;
872 [label="squared_error = 0.0\nsamples = 1\nvalue = 1479.0"] ;
870 -> 872 ;
873 [label="Compactness <= 0.188\nsquared_error = 380.25\nsamples = 2\nvalue = 1366.5"] ;
869 -> 873 ;
874 [label="squared_error = 0.0\nsamples = 1\nvalue = 1386.0"] ;
873 -> 874 ;
875 [label="squared_error = 0.0\nsamples = 1\nvalue = 1347.0"] ;
873 -> 875 ;
876 [label="Perimeter <= 172.85\nsquared_error = 83365.669\nsamples = 13\nvalue = 1796.154"] ;
718 -> 876 ;
877 [label="Perimeter <= 153.15\nsquared_error = 15021.69\nsamples = 10\nvalue = 1659.1"] ;
876 -> 877 ;
878 [label="Compactness <= 0.161\nsquared_error = 8741.2\nsamples = 5\nvalue = 1570.0"] ;
877 -> 878 ;
879 [label="Compactness <= 0.121\nsquared_error = 4.0\nsamples = 2\nvalue = 1684.0"] ;
878 -> 879 ;
880 [label="squared_error = 0.0\nsamples = 1\nvalue = 1686.0"] ;
879 -> 880 ;
881 [label="squared_error = 0.0\nsamples = 1\nvalue = 1682.0"] ;
879 -> 881 ;
882 [label="Compactness <= 0.236\nsquared_error = 126.0\nsamples = 3\nvalue = 1494.0"] ;
878 -> 882 ;
883 [label="Texture <= 21.445\nsquared_error = 20.25\nsamples = 2\nvalue = 1486.5"] ;
882 -> 883 ;
884 [label="squared_error = 0.0\nsamples = 1\nvalue = 1491.0"] ;
883 -> 884 ;
885 [label="squared_error = 0.0\nsamples = 1\nvalue = 1482.0"] ;
883 -> 885 ;
886 [label="squared_error = 0.0\nsamples = 1\nvalue = 1509.0"] ;
882 -> 886 ;
887 [label="Perimeter <= 168.85\nsquared_error = 5424.56\nsamples = 5\nvalue = 1748.2"] ;
877 -> 887 ;
888 [label="Texture <= 25.47\nsquared_error = 1515.688\nsamples = 4\nvalue = 1715.75"] ;
887 -> 888 ;
889 [label="Smoothness <= 0.126\nsquared_error = 49.0\nsamples = 2\nvalue = 1754.0"] ;
888 -> 889 ;
890 [label="squared_error = 0.0\nsamples = 1\nvalue = 1747.0"] ;
889 -> 890 ;
891 [label="squared_error = 0.0\nsamples = 1\nvalue = 1761.0"] ;
889 -> 891 ;
892 [label="Compactness <= 0.188\nsquared_error = 56.25\nsamples = 2\nvalue = 1677.5"] ;
888 -> 892 ;
893 [label="squared_error = 0.0\nsamples = 1\nvalue = 1670.0"] ;
892 -> 893 ;
894 [label="squared_error = 0.0\nsamples = 1\nvalue = 1685.0"] ;
892 -> 894 ;
895 [label="squared_error = 0.0\nsamples = 1\nvalue = 1878.0"] ;
887 -> 895 ;
896 [label="Symmetry <= 0.172\nsquared_error = 39858.0\nsamples = 3\nvalue = 2253.0"] ;
876 -> 896 ;
897 [label="squared_error = 0.0\nsamples = 1\nvalue = 2499.0"] ;
896 -> 897 ;
898 [label="Symmetry <= 0.188\nsquared_error = 14400.0\nsamples = 2\nvalue = 2130.0"] ;
896 -> 898 ;
899 [label="squared_error = 0.0\nsamples = 1\nvalue = 2250.0"] ;
898 -> 899 ;
900 [label="squared_error = 0.0\nsamples = 1\nvalue = 2010.0"] ;
898 -> 900 ;
}
